0 0.8088820855587963 3.7729785216770244 3.917322919345967 -0.6848461603725087 6.2853977713367435 -3.4440890196796956 2.7383386191004675
 0.1886240973860543 1.6904435129922337 -0.15745507854365923 -3.854982716009368 -3.518302494512632 0.20636681087563238 -2.6725443297622182
 2.919029546558878 1.0236949184086541 -1.9527872928863292 -2.548620560052127 0.8200323602324954 -5.556573523831763 2.346053478709274
 1.6339877983077558 1.6810466654756988 -1.6617296035386468 -3.266304274632346 0.07343819160196337 0.9500264742571838 4.371714813585696
 2.435362066702388 -1.9448397539456892 -5.50269627443672 2.8762688855870246 -1.0039192283436131 -3.7696874241640823 0.11600176833291016
 3.6556878033126425 -0.01107283751028559 -1.4070459975438196 -0.6164443148745284 -0.36917324201848556 -0.2535246425606432 -3.947521390011982
 -1.7501832244821345 2.2098357049120465 0.769896113855435 -4.7199536692857045 2.083995737113876 2.2709022435126744 0.6092676930238967
 -1.6153438794836772 5.942935396763352 0.7149848425754824 1.4803456080269675 -0.045231769502749174 -2.7348383955537843 -3.395261740475738
 -1.6814371133962003 3.6999836760154934 0.5160054199049564 -2.500732110749583 0.27887096024601477 -3.2059169229576074 4.140136280603646
 -0.8800603526164209 3.9546040993842646 -2.3883294531256682 0.2655634912464135 0.874968363792513 -1.7494663265680164 -0.7931714238927027
 -0.0581977982317958 -1.2701541311146909 -0.5114266042992719 -0.41054573678931827 0.0817011421675595 -0.22871328696037957 -3.7700197798528263
 0.21683147642582873 -1.3765008783439356 1.6761235094642886 0.01166931550694171 6.697750960489864 -4.168164256975111 3.507916297268188
 -0.7099541169871368 -1.0501895926475067 1.0591255259851071 0.817973946843596 -1.5367128018538518 0.2947410083353253 1.4862733989448322
 -3.377250735942186 -0.8282909232606082 2.371647231699983 -1.5118446259981193 -3.38224431034752951 0.6606563673251845 7.5957088526597625
 3.2395361416105004 -3.187179726799563 6.076565332417477 -2.2283006068345084 1.3690145759296697 -0.03683119652275417 1.0990962267691686
 -0.12592758235850962 -1.2846087425381703 -1.4552475941579992 2.5826228872373225 -2.3067823472506643 1.3664199641562307 -1.4054677585187116
 0.1326546204818402 -1.798603188634415 2.6067053305119874 -3.3154285901047067 5.146822197698296 -0.7876444234657399 2.648956381295914
 -1.0563844977751062 -2.5627560813790913 -0.2936103125030077 -0.2720598117815354 4.34760683439121 1.4929544689126926 -0.8307913999096407
 -6.292975045728423 2.1911412136468167 -1.7688725618165118 -4.360301754043745 2.0029167053099703 2.626901671794521 0.6377412837373152
 -3.120943664869834 2.2442989234706228 1.9863686906466325 -1.2406613408377969 -2.3933317918608568 -1.3251824504421101 -1.1287282509581162
 -0.6089191714168511 -2.2301767805932298 0.36216698656683743 1.4465130514568092 -1.1212952317648992 -0.6008064014121675 2.6534552697955074
 -0.1872685636887558 1.98503285100771 3.6728261557372517 -1.7456531805681206 -0.3189616507126118 -2.342474566874793 0.5673451897971915
 -0.35599461866310644 -1.6022299775827695 -1.1141298135650826 -1.7189706443662094 4.766169902201873 -0.20204303178428146 3.2331935507983722
 -0.7466010419545852 0.02853938416288283 -0.8065799615867956 -1.2406169184551084 1.066704671930986 1.4177336147185888 -1.315904715216287
 -1.8518641698149798 -3.6130709164569907 1.7162813139048518 -3.959621914035529 -1.6313835621632828 1.6163356647963476 -2.41764056804731
 -1.9431780677372201 -0.7637667392494061 4.097180675970821 -5.022301224538499 1.6764161853324941 0.8791161290182756 -2.779668788582731
 0.7358139508672599 -0.5886694341993395 -2.634274797334496 0.7577967553157601 0.1243242717076609 -2.3063000725440963 -2.6097371189851564
 1.0205570211618522 -1.1388053618408025 -2.00455350669295162 1.709776431080752 5.66394705002489 1.346038136178037 -0.9845520050852978
 5.720307451093752 -2.760898317833292 0.15108722611883224 -1.0626015769343962 2.232500558142881 0.4412856478527056 0.2278744262213807
 -1.7670058779489368 2.0565450955702462 -2.3114230890256695 2.8994962009281053 -1.8828097790658929 -0.781141055034547 -2.5506539802098493
 1.5619032925091803 -2.19583739947672 3.7722408071560314 -0.021797414370866092 0.3610308477980532 -2.2896645159161753 -0.4361860337983371
 0.36188659260790085 -1.3775478892057902 3.9178720529165014 0.7920879725290465 -1.570867887710397 -4.462181836674019 -0.9297022352259655
 -1.8621339438246625 -2.5272957043040463 0.5729073667268584 1.6139567515344013 -0.11636094956543956 -2.689573809784563 1.924066801313498
 4.1870164773988465 -2.380510997166917 -2.543098109212869 0.4021440803505162 -2.708493248999629 -1.3005945242742392 -1.6262428500041868
 -1.3792032066892848 1.8908315453016171 -1.2622999234533507 0.3205895139194103 0.6575871827565969 -1.4122601428632253 2.9038824865944863
 3.9053500316837026 -1.9811940182495864 -0.5565406695083558 -1.5428277495625307 -0.2955637664591234 -1.623345672391006 -2.6957569817762495
 -0.4317019153010136 -1.320746562694906 4.3224546979561955 -0.9262809845946346 1.6809148179854718 0.98092818750928 -0.2297716878475661
 -0.15901110655820694 -1.2683052478356707 2.8669133951304167 1.149095749023954 -2.6728593609407008 0.01608955282197444 -3.275211784631672
 1.1154031970006393 -3.958774226700007 -1.2643535373679449 2.3227142940164365 -3.508171592161577 -1.2808111481858764 -1.530911177579679
 2.127023336479344 -2.717572795722371 1.4473110934798965 0.08604146436821061 -2.14410027902016 -0.8682204183571165 0.06140129527395833
 -2.424707023514958 0.15845446737263716 0.3939972267957499 -3.3375105716547466 -1.9205177348400253 -0.01915278740770921 -1.097895956153106
 -0.344625571935283373 1.2175448569293672 -0.9356821756507199 -4.034260172799474 4.328498951174813 0.31480885780835655 -0.5633557721826674
 1.0089549863706189 -1.7677036137602777 0.3526616705989422 0.7600226008660839 2.587678880420275 -0.8628921445646744 -0.8275596046691706
 -0.576810698630344 1.3293644506941513 -0.8863549101497914 -1.435564022553149 0.1679753810274211 -1.624396783377376 1.4299992590636783
 1.419235829939973 4.7486019842549085 -2.019944188932524 -0.244439210307829 1.761520634720965 1.1061253351382263 -0.04702979831984634
 1.2180605500358608 0.6807659315889913 -1.3031229376925824 -3.180436161654014 -3.899830912846871 0.027623480612691344 2.5370065763534706
 -0.6420796096692023 -0.40097330390239533 -1.6088439749946422 -0.3698711457474718 0.7995756611601597 1.993144185577845 -1.960228645739178
 -0.7219696811166164 -0.4852279080125158 -3.5145776087706415 -1.9425120528166258 -0.29274598577749494 -2.199507138751251 2.130802738619161
 0.045858824419412365 4.155684804684808 -1.5295200132631266 -2.3688075410191582 2.928863540827718 -1.5452258595830661 1.7040528600662446
 -0.6077965736441759 0.9291766710077536 0.5938029305696958 -1.3791736985842231 -3.498781033685696 -0.7833585961231165 0.5384455144041633
 1.067162092725708 0.14145559547546238 -0.12640594997797738 1.175513252457557 0.7959685416828617 1.5313594563065036 -0.01468036469675186
 2.4501918015068265 -0.5014361445593777 -2.591969535378047 1.199388565358338 -0.07594116788216139 -1.0282862756249205 -0.9191482757942682
 -0.419966679868732 2.826130473195248 -0.5268911048361957 -0.2172678353702325 -0.836127399604214 -1.9658383977918876 2.8587069243536467
 -0.20552436783552047 -0.7462911225890276 1.165607527289541 -0.9671423555198044 1.159110946595055 -1.1616675619871235 1.1269886397626463
 0.3897602494763972 -2.554398506901745 1.5414179080995347 -1.0126998617085523 -2.8130223277148168 0.92616721415112684 0.5307519900257752
 -4.78108327448918 -7.171828240324822 5.054228532674804 -2.2430638757242556 2.905062922004265 1.6819428255642372 -2.667722384389946
 -0.6122641503217323 -0.3637798573698649 2.3274453747410404 -1.026845064909932 -0.6241665402857439 0.5633765181389386 0.01783364544636679
 -1.7149764529345006 -0.2383911494771008 2.793984260979506 -2.144350239687969 1.9039709983036022 0.8933879158278967 6.33315769404786
 -1.8393386149602853 3.3210177550571855 -0.20395444890547013 1.4479534679413557 0.4570375014928745 1.4411904115162733 1.9220336162575329
 -1.011638943688101 -1.1687482093375885 -2.6471782724445982 1.2625056205707008 0.9508579684977356 -1.5516671402773954 0.5178151962558434
 -3.1874537126938822 0.8705385027284346 -0.6400426667766118 -0.4480103190808253 -2.1568219510645767 3.1468053439016277 -1.048483389070843
 -2.6344827978062835 -1.3484347184218135 -2.1938863766751004 -0.0940142295017278 4.111496523053363 0.16634649271035737 3.9731620765148614
 0.2235082033486541 -2.9699387527347554 1.6544243631387434 -2.7738167694331506 3.2682513599966896 -0.44751084271712116 1.0044222890394023
 2.0616194854268515 -0.884885890750211 -0.8884407869845712 -1.531678378407858 2.6689151878388913 0.8307169506852541 -0.010327068017173851
 0.8632841809087037 -0.456830129618996 3.6566392997374186 2.8892205916668368 0.659203984081719 1.6156436186660612 -1.0605618509096215
 -0.7040426250692101 0.42138699770374327 0.18860376748592375 -1.38396760920444 2.394510208619357 -0.001917606935007107 0.9492388576434866
 0.36489364053693785 -0.9277512108227345 -0.09204065605436719 -4.922005581397806 3.7419379553924244 -1.9908178984104945 -0.591615456050603
 0.5293765416654683 -1.7789612091718752 0.9755563517536386 0.09811374357819923 2.4975268815185783 1.656109679079809 -2.8912663772850395
 2.9040375837833725 -0.4069342387435592 -0.13737755577017863 -0.371174524989971065 1.417751358522268 -5.529448015633785 -3.42159540637274
 2.763034919221653 -1.9941172847239326 5.6060484553140055 4.398205014193368 -0.9357791809905257 -1.7218523026187513 -1.2787993253422005
 1.7879837470793964 -0.41876851690296885 -1.24577234695861 3.427356124142439 -2.205381801978052 -3.6603212967995384 0.4747244884368595
 2.2801031460287455 -3.36341500282577 0.6264250360763487 -3.1131834613333464 5.5659434053380545 -0.06992527351041927 3.289837228916751
 -4.639813674861561 2.4307298496156986 2.0766501385077105 0.2095530386944119 2.2101307171252347 0.5404026450774857 -0.2833080851861499
 0.09354672548463755 3.629321271746875 -4.866151444472494 -2.271856041006631 1.189491247516785 -5.015157666529713 2.3019890629122175
 -2.5348945891486916 -3.508301587896728 -0.667447849161508 2.6830023835180397 -4.172012243090054 2.3535101445605022 -1.0903503931716796
 -3.3098860706886932 3.6487119264796455 4.929054210318648 2.4437586149873516 3.409890390773741 3.9558212314158414 -1.6760879213051707
 0.2714485926247023 -4.320956342004211 4.1220418480622545 0.04268437377427761 0.912688125617208 2.361004747334931 1.0218765008537842
 2.0739356246813503 -3.41817616365915 2.4381309723974387 0.4279598388547346 -1.5185638984183132 1.0929152782837324 -2.232809915738432
 3.7224371924268573 3.2244635337677487 0.6018316084775721 -0.9856921567881041 -0.22166728601458602 0.6397188526662859 -0.26361247807222726
 1.7818306269342499 -1.3917099128863337 4.830933221955818 -0.38445570253108424 -0.48451565163123494 2.890635649790084 0.9885844963587744
 0.9515875354347666 -3.3116415693060537 2.1284070611783044 -1.0921158873808583 -1.7566480813005276 1.1717639857843334 0.6244913053786443
 0.7833207604128001 2.975301843726673 3.131623250080158 6.2114793775275094 -3.994134701769853 3.5362251430208653 2.7870864987123674
 1.8958969224551958 -3.3912777216426196 -2.66018174894882 0.8959363703139953 -2.0223026561562487 -4.588905125993158 0.1159020658975976
 0.6214074098426668 -4.064645933848689 -0.6964851339558581 -0.3922469843225211 -3.456000316712723 -1.295977862665775 -0.1986023703700149
 0.8538102110587555 0.8637652990719645 -5.791094952914984 -6.709303155976397 2.690611987202581 -0.15152492664846426 0.7608976280338535
 3.349153201563628 3.283402809186809 -7.282090344601203 2.9015148337974352 3.534726509689381 -1.2374861118480174 -4.942928575004465
 -2.284685096652982 -2.685575090242409 -0.9907501187600868 2.1923409604386976 -2.3723850842399097 -0.1638882599547883 -4.2512333766408315
 1.9964845542055822 2.686543319457811 -3.221697941177892 0.5539219487137604 -1.0242663931032505 1.5025758185049323 -1.1717877034145079
 2.8925317030759223 7.486012112465793 1.0807107726344718 -6.622007560175476 1.631488986577903 -1.0493151430501058 -0.2456347629356042
 -2.0879552879367247 -2.0357083840778705 -0.19481297056779937 -2.2672012926681204 -0.6185108997986877 -6.169953335360891 3.748894705392462
 0.11540192476592707 1.4340288136329757 -1.7608337823132079 0.6044544991480819 -0.41002039020495445 4.775243420173507 0.5687644055500349
 0.3287294776460981 -0.4819162261197301 3.002376939828892 1.434677407633625 -0.8509013467638648 2.2248293297061585 -2.790846291422449
 -1.2625831005442392 -0.2284852490700174 -0.6407398236707671 3.050393102318786 -2.846177034564106 -5.839865088490035 1.2494345505696958
 -4.47435949871632 0.3204613220863974 -3.3873548163672678 -2.075542128847366 -8.77003330807014 1.5189180768675723 -0.623257459208459
 -3.6338452663890117 -2.503046837166545 4.126691829833557 -2.9991409257564654 -3.382636460200235 -1.69968874426594 -0.5982065062184385
 -0.7669039284438788 -3.4053717409194757 2.359916425460043 -5.68358145387255 0.4234845356688284 1.818332626978083 -2.7153666375300145
7 -0.27356163035877296 -4.406462207968551 -4.095161595116038 0.8105112538489646 -3.844117221718232 3.968253973292779 -0.8595353274296592
 0.5416219366290185 -1.0512251404848838 -0.6525327652388969 -0.9754817417206807 1.29539766156604 -1.9351084424591338 0.8419360920527025
 -2.8608287313054084 -6.672500667233344 1.8016407011789848 0.7918224517214738 -1.8746858573770036 4.384805963272596 -3.0914876759998067
 -1.833887010177647 -1.1310306447957708 0.49887341200583135 -0.01287386825973241 -0.5215937312118598 0.0469022628857796 -3.24134992839451
 -1.3115187090016804 1.9055606719891192 0.8189323119558922 -2.2035019639722213 1.0963518341210625 0.7673779605776561 0.07223121287275458
 -2.5094436995688647 -1.224837287529358 2.018629604690014 -1.8258957283897463 -1.4868176373807076 0.909509414119436 4.225367339486795
 -0.08907937835929788 1.1899194524268994 0.15097517976003338 0.4453784814681851 -0.534734119935218 -0.6795164778859478 0.15867311988369698
 1.6660963319514166 -2.715041636991904 0.666608226253092 -2.5094289462119588 -1.60315993279917 3.577681597599039 0.238925444240546
 1.108921564352098 -2.044801558710217 0.12509820707206135 3.282363233905741 -0.11190773737672959 3.0033396496188796 -1.990800584066008
 1.1004317099786667 -0.5140224164171374 0.04140266400918096 1.5825633844777454 0.08366850983103392 0.14750670686400566 -0.7678484427922859
 1.2017400611483546 2.035061938063044 0.6577117013143675 1.3841415722201866 0.786003656220844 2.6156366183052153 0.13472232221835032
 -1.0311799104849957 1.2041545834690857 -0.16712695428256102 1.0816319851520673 -3.753375828082693 1.8421548125172191 -1.9571966795318232
 0.050102337098739444 1.3142324671349894 -0.629505312596449 0.2898008409511429 1.7759986725132442 -0.12022927767193797 0.284019021015979
 -0.5503506479548729 -1.9372910098816132 -1.1679731535324402 2.342100568479841 -0.73413579999071098 -1.1820196174075452 -6.811000751890202
 -3.4124477338768386 -0.4818793978721702 -5.565521627229165 2.8708634847934826 0.020638461606608035 1.670130398857951 -1.7080398363614404
 -0.843406520707237 -0.21471650061681635 0.30379471637004357 -2.2139189039814995 2.0143025897747977 -1.007865026050781 -4.828542839094462
 -0.9598992367981442 1.9397871658363612 -1.937171485354667 -0.5041209959642253 -6.042042256085787 -0.9086012654019382 -0.5154415302133787
 0.9088414134508396 -0.6094207263397841 -0.11466418273603031 1.2778241335430434 -2.374029664138515 -1.869833353908905 -0.8721938030679963
 1.6149090619408 -1.1747018999565562 2.2092408988322254 -0.8677881186522348 -2.0105036795427678 0.6741993125843297 -0.1035794091919361
 3.784271488339313 -3.551026230216852 -6.016424754529926 1.6101276349566356 0.9008115968190036 -0.030295019180493522 2.851261586286026
 1.887916238784139 0.29382190449426443 2.471913755660165 -1.3728114830027502 1.5120334884466924 -2.764952657102268 -0.6146706889622363
 2.1878114812084646 -2.223091917492513 -4.982436396532686 -0.7656477368211412 -0.8494399197468633 1.1945038600071787 0.8698922739657625
 1.5944428708333835 0.8970833846794407 -0.22832905953967736 -0.9648879064096022 -4.39689593509404 0.22515064316688432 -1.7216767414176612
 -2.9809954947358093 -0.6877211033628641 0.6607380298099707 0.8844469494019107 -3.5957192446677313 -2.135863675674786 2.5580830887738375
 1.6621116685654151 3.829616384340318 -1.3599846993194902 3.9531336062809683 -0.2865543019748496 -3.6431960054483676 4.056679526615996
 3.755968027991492 1.5215965043013693 -2.7559773679805386 2.496189243168736 -0.4378747260155605 -2.2746125353616593 2.0451806074790384
 0.5494734869776814 0.13942745188567032 2.8445943236131597 -0.689291184113814 1.1754297290327218 2.2085933890462073 0.44395803741377254
 0.7902886914734097 -0.19840396580396363 -3.05837647676564169 0.0180070936278518 -0.604451919734198 -1.0762270996993555 -2.709437723155431
 -2.900188923916893 -1.161170385271863 -0.94697477444555 -0.5359802402607028 0.2977839498699152 2.0503053166738083 -0.7204212069472732
 -0.10454496987174217 -0.014602852114150104 -1.6850669427490328 1.1083698285224286 -6.141472819914327 0.4834020440720407 0.2443304149085011
 0.8863925025881123 -0.5816533730369945 -1.2218911894243323 -3.077279685261778 -1.8497879482550996 -0.28242744680864357 1.8556320599057552
 0.5415970579987383 0.6659122127702013 -0.8176111537347913 0.35381248932183207 -1.0085919794132006 -1.6636792078595013 -2.9326464805705785
 -0.7099896426458167 0.26234038846372837 -0.4135928722842524 0.2186371849362361 1.1904015006733564 -0.17578254461499623 -0.9423966583164162
 -1.5216318047076667 -0.4594618771626848 -0.9787082981306788 0.7378203568068001 1.411019404424267 -0.46694657897186514 2.170867072977627
 -1.0821125947528303 -1.315136668980244 -0.9659343750740361 0.3967024818758814 -3.4466607041889556 0.016880986614892426 1.9193915965156916
 -2.430631753044943 -0.6626012863250396 0.06975322222280618 0.5478752752744113 -1.9695802908034592 -1.7261411943433598 0.7632067591551354
 1.447582604185237 -1.476547603176445 -1.1914539545538234 0.6268982317435148 -0.42346220554419256 -0.0668074472805114 0.051361204438572526
 -0.7013403717920554 0.718074868332613 0.3820918133759332 -0.3484381707179627 -0.5368930657963438 1.6027891539753933 1.011853558262704
 -0.8217739645867785 -0.5690958182144006 1.023030410845526 0.9621020479238852 0.05886750852248416 3.077070490100356 -0.853340671185426
 -1.8097786489529322 0.4315441901193308 -0.41099267028506875 0.15578680363174782 0.7147053632552738 -1.0307649547154922 -0.6878566394530926
 0.3161134163465044 -1.5244618077567462 -1.4382315833060784 -0.2099338109251665 -2.7486402791972275 -0.885726702335498 -2.0115265990229396
 -0.2167625126078129610 1.2884982002550194 2.0503638262239465 -3.473173106609776 -0.41589699900854815 0.03277253048506123 -0.8506119747251326
 0.307333387725819 -2.9889236309651754 2.7450479108612686 2.004421076503308 1.9027106269731644 -1.6062525675049528 0.8343106098000864
 -1.527332226972229 1.8885312437024113 -3.9978647717016615 0.5325682984348705 0.692296417941616 -0.0866120923441462 -0.806546514765251
 3.0148603529574003 3.295660970188587 -2.61083264233806 0.5162529910192638 1.7042603646348355 1.5527235819841727 0.21528050449433822
 3.8248033215317565 4.1363044803422495 -1.1010811041870703 -5.040618644012033 -6.458383626423458 -2.237065359423324 3.5386295782878956
 0.8252421944433298 1.4565943100239762 -0.1068840597985178 -4.49850955593224 1.200358964158992 3.0486300775966413 -3.8503462522624607
 -2.768625903518921 -0.5976004112729314 -1.2358882877619988 -2.46477791490766 1.286001729120086 -2.650791467212078 2.4147087140569257
 -1.506297979055836 4.036945655293216 -4.431499042338984 -3.341904800600723 5.129696557845886 1.082121811345389 1.4127472912197727
 1.5666731136367613 0.032198236140046764 -1.9485679828166604 -1.6039673522958602 -0.7330525512219409 0.14946288388118498 1.0397506969920256
 2.7185413695058336 1.3830313483819845 0.12813092782089724 2.7509954458567987 2.892632409278977 0.9298075539139753 0.4408787832474771
 4.479967776728218 0.9928203650353743 -4.416715310451368 0.9430431396107807 -2.568830531718608 -0.9581275435905426 -3.4846478008843906
 1.385072183831241 3.5048287222248224 -2.5981716270339232 -0.10831517680211247 -2.1997411562180385 -3.344738849567183 -1.057542747884326
 0.2318727705593513 0.8967247429643092 -0.07974267975674351 -3.99072843232395 0.007796569896516623 -3.199455828215698 1.1614004231310486
 -0.44925434076755405 -0.8053220260960746 -1.031255481991336 -1.9919464164801657 -4.821166680340491 3.691112420553834411 -0.8489142022819921
 -3.3383235089003094 -5.360031259548094 -2.796537602012515 -6.179056464569542 1.1457002216996564 -0.1406622188853832 -1.6114042724038056
 1.5432004499124596 0.8702120111402535 0.8826851013078255 -0.7146183859480534 -0.9604295903171475 0.543118440538592 0.3058331778355929
 -8.044555162927116 0.9031603081106083 1.3177371462165077 -2.03064692772486 0.5473040519294642 -1.977065471862745 1.9126211516933957
 -2.968308401577666 1.72619633748802 1.0185260828477112 1.1324126368690568 1.3003328176680784 1.8753325783890822 2.5395337308081207
 -1.0906022013673564 -1.5451888913790934 -6.1088007820506345 -1.2296774997680189 3.0082632571024126 -0.03752114398999619 1.497514633480522
 -0.8490754150810884 -2.1674693643722875 -0.743481393749069 -1.9601064138746722 -2.3118132005699823 -0.7831702189157418 -0.35041839979128436
 3.074694094742665 -1.036859709645742 0.42975585826852203 -1.5692051767523905 1.0787970256388424 0.1808059223870177 1.0732314614916127
 -4.61466802681925 -2.3026933272149375 1.5414802500050309 -1.4729881563898601 2.243641918421743 0.8128691622243774 0.09572618365341914
 -2.1621381271777125 0.16166419892501618 1.5979573711509347 0.5863832883470839 1.9371990488052873 0.03276654504822582 0.272509382591483
 -1.956360628092367 0.6600349364475693 2.8385140442428898 1.493902649318007 0.5882947026131643 -0.10295583273474382 -0.31193886716229535
 -2.7487609451521537 1.557918472686322 0.30411051256237903 -1.8333160990459128 -0.29678445883175847 1.207491684946155 0.8693159182250663
 -0.7314490090780661 0.46212711736521067 -1.7055374384243902 -6.313234764742621 -0.33678182613953117 -1.806600244699582 -0.4600696681843481
 0.9307962379603366 -3.8301851196379557 -0.5765544259865013 -0.5587541769734119 1.2435899971219684 -0.33350046875122424 0.06007503642359807
 -1.4253730777311864 -2.0126637215970526 -2.162164063009361 2.124286022703412612 -1.0107448445928837 -0.18022268144500767 -1.521079351307965
 -4.34772099326499 -1.3488016672534278 2.5890548326303744 -1.5148663922385865 0.4845144856047304 -0.8493083291140555 -2.1881995191000674
 -1.322216605582622 1.5902155260038793 0.24304860177885693 1.5611964782871268 -6.029047105746051 -7.947680656140653 4.506748836622396
 0.5059956292751109 0.6250499287974604 5.447475640820589 0.4896977781899857 -4.683691327505234 0.9650252482754184 1.9928960689471513
 -1.115143598916978 -3.527832016120525 -0.9873784614294835 -3.9728789905474025 -0.3752702529351599 3.160387852211449 -1.5754494479111676
 -1.8931363760097488 -1.6014735334921086 2.1760906754613885 2.0435270989173966 -4.579707062578729 0.04010882915443557 -1.6457064324454684
 0.2195409931012218 0.277477033264431 0.7203343163849177 6.7629987360699655 -0.23717589510691567 -1.7381316649213039 -0.648833220583257
 1.1484709560613096 -2.211488428373382 -1.9757904326561275 -2.021428543206336 2.71525427984489 -4.724487240498834 -1.2603285865388412
 -5.338672492611372 1.7575524256095223 3.8182850076553865 3.7538768840203236 -0.7448429425265923 -3.675556073959915 -1.6564465330718723
 6.535317180073373 -0.25315791547932226 3.684080767359184 -1.529204170912029 1.7027278131834525 -0.8413794216264557 1.0870435808446235
 2.7653108683424175 -2.5792882055814768 -0.9840723914008355 1.3640834561150708 1.659979107798795 1.124161996800061 -3.358200595590501
 -4.6174805891992605 1.7902950145176513 -1.0959314355203338 2.850475441493442 -1.2775248345294803 -1.4889610572393324 -6.869661544754131
 1.0324936459475993 -3.1219716812245646 -2.120773496045362 -2.5525870255267127 3.9429185171245313 -1.411626716755535 -3.426682959723777
 -2.6388199098069967 0.3361965100698726 0.20818515500660198 -1.617388405565263 1.092740145217204 -5.0963964399728 -1.1540882409141524
 3.315420515980539 -0.0409545268502336813 -2.8883950986173024 -6.640886186571214 -4.267742734037723 2.3006445478450965 -1.3798452551966787
 0.37267718297702357 -3.0172982354019755 -0.4410872470127798 -1.1557177923940214 -1.9017529818087542 -0.11977359799766713 0.2245085327744896
 -1.6096839860057075 1.4975411244834016 -5.466952408465842 -1.2393804056829385 -0.035133903512819656 2.100828293072217 -1.503956605033711
 2.6886506336786473 -2.620734075110513 -3.581991371612725 1.4478003682384786 2.5564718079258117 1.0142234588956214 -3.0944892218215503
 -0.36384439152964543 -3.8941700725628783 -3.601838310344627 0.4456958039138922 0.0779968297049822 -1.1949741356897423 -0.5645697954629418
 4.023906483429051 -0.6509787660299956 -2.0602856946877264 0.05559502031065616 4.399456022607529 -2.2446291717290463 -3.4009607928619077
 3.988407217249038 6.013971911924586 2.023412690852118 -4.530190711113891 4.1194808241381 -0.6246168838446725 2.779184661658374
 -2.633419333190763 1.4152646463288179 -1.050594022503939 -0.8788605882850615 0.05645565922505195 -5.838659922141829 -4.983695876887046
 -1.048891236590239 0.2845477266459336 0.09026246917410763 3.097364444870363 1.6356226643743004 0.7935874312768165 0.5210649291909647
 -1.7745928725526765 -4.03627315885178 1.3263275467584696 0.5543383356883009 -1.1506676384108767 -0.8073943892076477 -1.2939735937026042
 0.21557058177624278 -2.631254700272022 -3.0284718753289335 4.904768239005694 -0.665854323884553 -1.8233085613817201 -2.0103971095471915
 0.9433696617693123 0.2848546780668472 -4.820240734145211 2.147474349671218 -3.6150306072069296 2.0935052217011214 0.1966856053785164
 2.142246653876942 -0.596339252367882 0.43283588153404523 0.4746126640570585 -0.24248893039606578 0.4723932686754744 2.175372752261165
 -1.3705921570092938 -0.4864823473291728 3.753587971753909 0.6458526012060882 1.4928286742614523 -1.4854219850027974 -4.637085606642832
14 -0.4076390836042497 0.22589180046841228 0.46958940773500923 0.21953700353255476 0.7358630255756254 -0.8458001802561923 0.48665899678065183
 0.280007546539766 0.8785835301921253 0.19978521417847736 0.6776147222872554 0.4884106816391062 0.41945861511622634 0.5001819680725523
 -1.9773648078293344 -3.7698951394570557 0.7398130939499874 0.1178290116094761 0.8696908607190869 0.18690840163913752 0.2928040110481995
 -0.41824973660941334 0.6770733416952 1.7041933539707539 0.4621193759460683 -0.48303867538025 1.1323997980242464 0.3826935704588648
 0.3530611896124142 0.5590370411353386 -4.250091239638728 -0.5325080419571023 0.2139786444889581 0.2188865295621221 0.9548153485449604
 0.366368970702701 0.07846996504879147 0.043814797259055724 0.568454815914444 -0.3547700160237295 0.9159344794934325 0.7696355682498722
 -0.37095215366123396 0.08176433433755081 0.9236393361784182 1.694658388569701 -0.35534747360166996 0.11007168323513498 -1.5987002042719312
 1.0592173319741771 -0.06763310978568471 0.37235803667285017 -0.03376016249611316 -2.3333605264655493 -0.24203376703081772 1.8180930781412683
 0.6986549142301082 0.4865751870409856 -1.3827218750819394 1.3754841786969594 -0.5915915283378435 -1.2309034644237968 1.2568881847951885
 0.7554900287244625 1.246832955256472 1.075366022578735 -0.05246591253979587 -0.8736675247533027 0.3369706660426732 1.1687475182406724
 0.687741699811665 0.7936459233942976 -1.9460238944465647 -1.6182578270510253 -0.29005683997301746 -0.7738975466820733 2.4946397531948272
 -0.1478767445437354 0.009821824468503573 -0.4169333402614177 -0.09218600067426452 1.3257786447800803 0.20277746014090403 0.1953084108632545
 1.5101089725232033 -0.6073036115097182 -0.024755097391990825 -0.7718650421141309 -0.33422752382897003 -0.03104342994716609 0.0956633269979374
 1.044831633964059 -0.9075374821593528 -0.009871205200458708 -1.7249349896015957 -2.52966071617110315 0.8969437469919626 5.271728237229737
 1.314647080497867 -3.3392380748683546 2.2516035252400455 -3.394926752832419 -1.6257131107568878 -1.2145465257111419 1.5883751470213985
 2.061213718485795 -1.420871796496458 -0.9626558951292477 2.338221714991032 -3.1975787415159784 0.9477280162615922 -6.201854046029436
 0.5808297915420229 -2.2848920703944855 2.0472789099236417 -2.023489675050491 3.2099352156522847 -4.329279685296647 -0.3142684379271579
 -1.749503725748346 1.165370616652732 -1.3086352215864259 -1.0121670118424215 1.8529759682607834 1.0232318553772972 -0.7356490089378033
 -3.836672570376981 -3.2242321853667826 -3.2397451841156983 -0.7448813819182503 1.2869378249587 0.6192674256063457 2.022199108960782
 -3.321075181635765 1.8030153446925365 2.6342374353250704 -1.6729542631713654 -1.9610966997602728 0.8633606391673825 -1.4743217568646505
 -0.6025230434352119 1.2682423153705795 -2.7776590163584127 -1.0351232675801676 -2.008217905752943 1.291216707164884 -3.2188052870018224
 -0.856710641605154 2.5769388367354606 1.7163741211932293 -1.9154438781195664 0.7873338932098962 -1.2983201774172808 -1.7520911059516526
 -1.9531364510166591 -0.3911046213045727 0.9326955730532517 -1.946953979152851 3.0317983630715326 1.9449044434626432 1.7829091598792453
 0.8077724070887012 -0.3794416470635373 -1.7875636766699958 -0.5659685301266509 2.9828359488955924 1.3473880281167847 -1.2462942791458922
 0.3611775212777514 -3.1106484927145917 0.8999605164248956 -4.546070401155492 -0.019411823065760583 2.7362628193513703 -3.7763414212326185
 -1.0215970145234081 -1.3112340613322548 0.8830732372288688 -3.251743974812469 0.7200827013809398 0.8156109414671686 -2.2104869244945546
 -0.5729623700591628 -0.9787592643601287 -1.6599725864738601 -1.1215219672153678 -2.6524445995285864 -1.6472082252120424 -4.808308615668753
 -1.1202830554980168 -2.930908498615401 0.4467428337477024616 -1.303796288596784 -0.38024445155630204 -1.4750320366974832 -2.6384311360986437
 0.2248037178262757 -2.4221617623344067 0.40027646137059 -1.1867376270485497 3.3646343892761137 1.1336221141606158 -0.2257222364440273
 -3.105783274326367 -0.6044041528493811 0.09983709340869276 -0.29344132958269903 -3.4969844470631593 1.6028422557500914 -0.5600113702294598
 0.660521117135969 -2.4502255214980586 0.05546245950297286 1.384611811675282 0.6580568518473526 2.7068957449538575 0.7878503978965857
 -0.5188664206832364 0.9593440359673985 4.102248101081031 5.787572259418365 -1.164123883369413 -4.403512106233592 -4.252397823002905
 -3.1217418613240078 3.840431366270496 1.481458743731522 3.853506648233606 -0.4765002882966371 -4.667509231328308 0.3591413058856615
 -0.36392520388196653 -2.547342946544958 -0.8984910941750199 -0.42251271636798676 0.9306600638242539 0.9889108555881232 -0.23466485615513008
 1.3528476236820086 2.16305089478844 -0.7424680944150172 -0.009945260176983833 -1.988524727223877 -2.2735317935172072 1.3015861576207275
 0.4442393086206729 0.3415702380177729 1.0629626691159506 -1.9876901414118202 0.4499701817423063 1.477594768001385 1.3289902872596746
 0.9711833033422388 -0.15438200336114408 2.8962434061696802 0.30069129269081835 0.37306126789754585 1.8422714900061967 3.1297295016552953
 0.5177156456413796 -0.16043268429607987 0.941917016337733 0.3167939436104508 -3.9707581543415564 -0.2908826679919861 -3.950688917951766
 -2.7129310986565387 -3.8860709351295313 1.037025289178816 1.243805649054847 -1.470028207392169 -1.5034878797610756 -2.368913999526373
 -0.661367115875436 -4.182308715334116 0.691576299652828 1.9379586181324975 -0.6718692206139715 -6.262590394344611 -1.081955757273368
 -2.188652612451152 1.0583463663996509 1.177189781329769 2.322914363666611 -0.7602255829894791 0.06818577217036281 -4.158312067211134
 1.398694075723172517 0.4654593873465408 -1.2126037553410252 -3.5840456610725577 -3.421133786082454 -5.444887423765884 2.929841909281207
 0.9955940001679555 -1.1763409919492087 0.19203322525976158 0.49692254365810634 0.31874010194508495 0.32739924988103897 -0.20281222152835982
 0.35368749098189706 0.47374352531222547 -9.192893137236075 1.444910907373317 1.6835380579967476 -1.0764592624765537 0.45097680970561516
 -1.6535214943731058 2.4191270061041243 -3.9370667776413195 0.3663815088175516 0.5444080757325573 1.5674980550706117 1.5150736733027172
 1.1638883968175135 2.5946978819805073 0.3636047555919484 -0.7172647666414006 -5.144094809403214 0.5745624484514539 -0.23033299106599986
 -0.41983455323416974 0.8164382226572355 -0.9866327413665548 -2.6232394604089553 -0.4624054297387448 -0.5340657787252698 -3.1377972941770533
 -1.8853223913484998 -1.8349985964562865 5.05361450313384 -3.493949232748374 1.773978516312892 -2.610203370293505 1.365769872828479
 -0.7581720801997202 1.7376688841443795 -4.842094874742548 -2.2058855023928374 2.2783682280903794 1.0915450942542206 3.481212686752842
 1.821862061352808 -0.1540854132521259 -4.143209456881438 -1.033700496822556 1.3605459761519783 -0.7634038946462365 4.050500191283925
 -0.5641236441339946 0.20722163340493763 -2.7507960527073965 0.576854589572914 2.0894199337867767 1.025952951998841 0.7591146881479109
 0.7547012435517247 1.2787076361609155 -3.408672512740976 1.3618874222563289 0.7115816364245244 -0.28628743026197817 1.0590957373439058
 1.5647396219188126 1.8933973643876951 -0.664980817015219 2.3053440356348194 -1.505199461278178 -7.04653455887889 -0.4000708522899484
 -1.9020389077041961 -0.6832570884943829 0.6210622460563606 -2.285048326999605 -0.9166634543802638 -1.186040420120509 1.8841221507330335
 0.2770186114486452 -1.4286263881534687 -2.2441764520507776 -2.2553136933235036 1.1377693861682039 4.13984382222017718 -0.11552090195441385
 -1.309726267412728 1.0329803562967959 -2.480908734882695 -1.9734448137937466 1.5287865652339143 -0.45120051324625554 3.4021988687302476
 -2.377439571210455 -0.4645635836376981 -2.0383013284746045 2.8994002519175 -1.4209151590354743 0.47719165638259764 -3.974289972188339
 -6.767161601661867 3.246673683316192 -1.777693114919075 0.01958134285366446 5.193412429963479 -2.659371310286507 -3.2293700308229765
 -1.7034291463874596 -1.7708410112166064 -0.8320237725174572 -2.428259159673818 0.26439665544496493 -5.942435238985996 -1.5909451038304243
 3.082022427138552 -1.6243805846161743 -0.4326427081262842 1.8772738194420693 1.249588303221006 0.5668059368263632 -4.857232525201854
 0.12907224408454462 -0.20172305054024273 -0.6205222972687967 0.029312195770916285 0.8293447507181805 2.717235247693629 -1.3170213827490103
 4.182134585796473 -1.7237175204597412 2.240032079979683 -4.372117188920596 -3.700748656945719 -1.422233579741448 1.7634667021268027
 -3.6891673735334143 2.0706136956409615 -5.448033914319673 0.28803422659474875 3.700698985884278 2.0375141324802986 0.7094073244270854
 -6.505505455400553 -2.24295444462489 5.06277326748772 -0.5395689214416662 2.97985801239126 -4.0374646812493475 -0.03973430867262208
 -1.6796322310711078 2.4572548666085128 0.2880468138439328 -1.8435261106236611 0.07272347960195477 0.22005886988421708 2.724288271261412
 0.098552683883977 -2.4866275856472826 1.6471555120180637 2.0224315623178795 3.1928598116264486 1.887674810263272 -0.22741515246980676
 0.8123086169314251 0.20673535451771685 0.4299104864621765 -0.7350134867291362 -0.2033634335635904 -1.9654380216615932 1.6907985161117511
 0.13278510561500756 -1.0471577774213587 -2.653432311761208 0.08797391038438539 -1.4168531414230185 -1.7607668706183444 1.1818749466267227
 -4.881026980258521 -1.6068926605739533 3.51887090945581 0.3916210799323859319 -0.38738004415757155 -1.3151258507096604 -0.08134325381603308
 1.0330041478148613 1.064976473298964 -0.46708999308230237 -1.0180597359941996 0.8039106683833871 0.20770162660274374 -0.49428751599415355
 -2.1637545056557372 0.8425201149776336 -1.298307922239865 0.8807211372345143 -4.030539561450179 -2.5532611895715256 2.4108088949515456
 -0.4648950326023786 0.7109107364158294 2.224682358795213 0.8021998232516026 -3.900474988683883 2.385251447768588 2.985818633468722
 -0.40716447082845014 -3.1740635738557836 -0.15254807321363506 -2.3470490346226653 0.11372270572818587 1.3609321627501956 -2.7457191695677827
 0.8697141780904495 0.0547464622614579 1.2296408779152137 1.378826830914905 -2.6445015566575183 0.2386485977947027 1.5990912532428185
 -0.8747609199666107 -1.9138206153829014 2.6830338531938076 5.5171745427603955 -0.19239566955678772 -2.6785896255415906 1.8584327521459088
 -1.036976140349856 -0.2969233001417521 -1.2272838084739066 -1.0105564503876934 1.690868925106904 0.28751786009365865 0.5404624482892605
 -4.1704446659617105 -3.2275152760430665 0.37892816192200585 1.1220871959829066 -0.10614425272012684 1.3542887234663967 -1.394554512384508
 3.580220328619183 0.2719096766621494 -0.9653968517114903 -0.8297158928286815 2.1481687295417613 2.413795129845433 0.8173474481683135
 2.0498433455177625 -1.7313594845024995 -0.3799538659944631 1.1027571984745461 -0.14120720562259165 2.6649871623779253 -2.244020741249313
 -2.137285874206637 1.5561387831414397 -0.31762527964671305 0.7337852527269467 -1.1142667261925323 -0.5134553921305166 -3.4602146031892684
 1.3732390025900922 3.0847108561722867 0.6285251773582922 -0.9962677735947647 3.2791498128268604 -1.165580839175798 -1.5496176243075772
 -0.3337825890697067 0.8972604081151271 -1.1241740561589342 -0.0674811183830557 0.05541882097136008 -2.0436818875945875 1.6218546077196094
 -0.6012023258482586 -5.09634748514622520 0.9883896327517172 1.9354964752046058 -2.64569834545324 1.3125296558739155 2.8419803161675663
 -2.7427975430506333 -2.6077511701583744 -3.5959113342222735 2.577953611055776 0.6096493062876143 0.2528837089774018 -0.35239493500292063
 0.04371870991880632 -1.7790886182027066 -1.0704608441361607 -3.731576664438219 0.8601531411387994 0.23290545957054246 0.6911526418312096
 0.9178829575959124 4.178881514075472 -2.9007653847180968 0.7115553808801138 1.8925466414111554 2.0941658399426037 -2.0487822086506062
 -2.2465334531574563 1.295195673935899 -0.46543533889822025 -2.1257082264457487 -4.839684913234216 -3.570637947070607 -2.201002403321338
 2.050148618659855 0.9115248678075756 -1.1260495118224791 -0.8498815008598397 -0.6962206815921864 1.5593297030473063 2.9950400438944955
 -0.9408239699690786 2.0094490883252374 0.6780488569966776 -8.032796186818533 -0.8978195057214853 0.11310971754368761 -2.554302350559887
 -0.46687707690218316 -2.2357818982685407 4.610143102769295 -1.8725113729296774 -2.800135486014958 0.8534089524850059 -1.5875283442313008
 -0.5406907013986001 1.3839981634473255 -0.2112440744024803 1.0133462803616202 -3.019300069816793 -1.4891606945149642 0.4633711809522786
 -1.8950166506280157 2.969709764505234 2.0414346275093505 3.150840668088903 0.9782223743423787 1.321666811697539 -0.6968354552985935
 -0.4865635337751637 4.746052137336081 0.2808335189935566 -1.096666437121638 0.025254462186570643 -4.999890291626346 1.0165083598680829
 -4.83076857609422 0.9548132336949379 2.180837346527929 -4.767522463205575 -4.2343954466846085 -0.3782999034555357 1.2650505802181402
 0.9043863345884395 -1.126337552886022 1.8854008062728145 -1.9815179778303174 -2.913545184866394 0.09727980775777458 -0.9823413501789908
 -0.8104731355148597 -3.092727612338119 -3.266522215347838 -0.554171165997971 -0.6867529533794439 -5.127694710131599 -1.3238014523197577
21 0.9620338782147061 0.8822823945030402 1.0669616311968624 1.1464532981711202 4.785266749956381 -4.0199317233942855 -1.5871403060642637
 -2.434880033254987 3.8821762011344325 1.380788279885622 -1.036444322099674 -1.0566248858312808 0.4723368484590365 -1.8173251800963457
 0.557986883879571 -1.0060584016939846 1.082365826968502 -0.5239005901866104 1.8263007815275103 -0.7962572808591462 2.6927207073989052
 -3.094024139945751 1.5178264207947663 0.2983812216438645 1.1906502932357999 -0.6920467692026735 -2.513865529350954 1.6863858213182046
 1.0278647192316652 -1.7855128306219412 -5.206563211894416 -2.7948383631969143 -2.927038708499021 2.128706481592641 0.5982898743317857
 0.03728166623170131 0.6591167324316216 -1.7934870141906671 2.1295943065150165 2.847399799638836 -0.8817444692961777 -0.11976391716118241
 1.3387086372779253 -4.6379589033718025 0.5063527432566627 -0.6469946666250789 -2.3082615733061105 -0.5409439980436859 -2.1705381859180637
 3.1337605838240012 -0.7503829038878366 -2.1001200562026887 1.3272754503860025 -1.8547218580567972 -1.1096104561033697 0.6575597202040617
 -0.7361003654786391 1.198563460880545 -1.6569469767980283 -0.9969711583839915 1.3899412768203252 -2.914913044727044 2.4881210550825394
 1.4080643439731069 3.381590257441157 1.6340701238903252 0.7275227957506424 0.05207608278274326 0.22880365524013815 3.9265211588883404
 0.4664291361269428 -2.6948152394472658 0.19601224112145224 -4.550896518714837 1.4007517035433366 -5.361620205908397 0.22912645823248665
 2.4348935172032986 -4.169391956397002 -2.604094115879069 -1.67917095628956 4.292056856335512 -0.4631134789225729 0.9947885851598446
 2.138175671916492 -2.1712250128926263 -4.2851820618239715 0.9539995314794913 -1.8581928513659645 -1.5363487355386498 -2.1702776836874955
 -1.9029648121106133 -1.276031321021437 0.9102184513102515 -5.201920721888519 -0.3056288839306385322 -0.3111924057928066 -2.7664905182244874
 1.255281231273396 -3.163263582944518 0.532099792969905 -0.4541580787992539 1.8223942244908948 -0.6279866050898302 0.9159373383032735
 0.7712815413927134 -2.3437935714352625 -2.0254889112363936 -1.575254973553665 0.24412129068221206 -1.623498221937623 -4.148400188615251
 2.6830642114920913 -1.7685736490868627 -0.928588850474553 -2.0298920169231143 -2.113456467144013 0.5455293294637831 0.8038412806885179
 3.021257365625909 -2.8195988253016506 0.08202059498892994 1.2355136580315307 1.823261220901459 4.413791587998656 -0.8892155492781404
 -3.1038781248459437 -1.358226467186472 -0.9691035059524226 -1.5830781461650696 0.05856599059058697 1.5910416166319197 -3.0183300346790487
 -3.515941315904944 -1.5806005454716643 -2.1116299060231007 -1.8336167193740964 -1.1583316921851974 -4.637745788806072 3.400417635551164
 -0.49320949986164164 -1.4287219635052428 0.438438844841048 1.0133882921401582 -0.7524400166149003 1.7324360128944283 0.2911632882753338
 -1.725698653749586 -1.6883941779499698 -3.184965073040132 1.0321150621651967 0.9261580181131269 -1.7123511415832724 -1.080755393140895
 -0.30334902842496353 3.38434859427987 -2.247893582736641 0.8688740869307385 0.8230747630905495 -0.2225686484571871 1.4537618355655135
 0.7248206979882597 3.4187338022565017 0.5409134272439249 -0.6680634888606133 -0.09827944730564221 1.1502449203236376 -2.9874569894973764
 -2.484979281744439 -1.7189666435298456 -1.7402127881603617 -1.5553215852632238 0.2117510996270465 0.20383359949075355 -1.0107794339918927
 -0.6835760686429976 -0.911727910918776 0.013178206896993984 -3.1988993363640565 0.11063682116564914 0.7715544341435697 -0.7804185299056074
 -4.7200700448578665 -1.2188778128715412 -0.6012178258008977 -0.6381558584301263 1.5301087073091841 -1.8230246446948541 0.40514578170921384
 1.280426592648323 -1.0950989675042804 -1.318777618820710323 2.1826971099167776 -2.0437727879333134 -1.6774825227220118 -2.078049823905717
 -3.6492718818429197 0.8801078852706712 2.888807782836048 0.4843586496220608 0.5387349810448051 2.06414807541787 -3.357253526470731
 -0.8494157997835049 -1.2182069471731867 -1.95916295238239 1.4839108386828384 -6.230993038202835 2.1808327970105705 -0.14000256899380262
 -1.8303866677216651 -0.0363723381612921 -2.398762871960629 3.5298749102718134 -4.320903437275483 -1.8446618345452177 -0.0643122288069092
 1.4551494745875122 3.5621092149501665 1.1333219966636685 3.258407113812119 -0.7416660216031382 -1.2402326732376687 -3.851181055405842
 1.805348376483609 0.7194259716230823 -0.4266364343935234 0.4716376991186857 -0.8536661065517072 -2.25541969260903 -2.347620575389189
 -1.1293150882274554 -3.4220665171712272 -2.5602428893053544 -3.1302863132774457 7.857783630171743 -2.967694474686328 0.34524729916501623
 -3.667031387295296 1.4126331603211506 -0.22055017212302885 4.663700124207807 -2.6324453743945617 -0.6247916732521388 2.822480411039038
 -3.4326727116307243 5.175533479730407 -0.1762420489292759 0.1202286158581108 -3.1636124069025064 -2.727248995636525 2.008008097569939
 -0.7330770633763591 4.735664720952075 0.035495241564836334 0.3946793140077486 -0.39946063431601553 1.094430652685562 3.7350672039271373
 1.6128423325466232 0.1441881218496984 3.007994508162595 2.1288802570148 -3.843838336998296 1.9641840151475511 3.7613467137912213
 0.09180579938921134 4.801351105079775 1.0935370335088772 3.384937375514958 -0.5470750675897201 6.334951187574071 -1.3289810600423821
 -3.1822663804019706 -0.8666488167902452 0.0085961082354732 -1.2636592874241266 1.1290921467710275 -3.547984759236752 -0.5052190748459946
 -1.6304179812346353 1.182027246016342 0.15255004458415433 -4.2671616459135615 -2.466111365315327 -2.7731482980106836 0.15496814538654982
 3.776791585078330524 -1.7069680732206887 -2.7510116515272216 0.039846203266659046 0.7537522446818364 -4.134780919549114 -1.4393935208327575
 -2.057214671564425 3.3576540546781226 -2.17475037808773 1.1295210287113346 -1.6192274405237386 2.238632506294867 -0.9435649046313493
 -0.7230433451295087 -0.33286777623549574 -2.522464151479808 0.9159550405699306 -0.8571652821730514 -0.4849765145070837 2.578164472570205
 -2.822517575964967 -2.1631906467071356 -2.558526730225812 -4.561452612277798 3.8993025991574073 -0.26666334601414343 0.9193226578421665
 -4.592250072695909 -2.846811999061053 1.5715969358021802 -3.1408956319948635 -1.4200915806401067 1.3372793225203676 6.098450529891867
 -0.7589698154068046 -3.420191812076364 3.2893194714665905 0.8058521549483263 -0.2685115212668331 -0.9893309455706206 2.4749226861435
 -0.8335973138399161 1.2727102363349696 4.664077421322125 -0.31630140490592923 3.0681676109728677 -2.5017933804901125 -5.044707623848009
 -0.5444434990257739 -3.1913058696487004 -4.421359171829485 2.9144340759682326 -2.5564478199977607 -0.45153637807256514 0.01944202847214459
 -0.47835598690767805 1.6942122140954654 -3.89066732803005 0.05503336483131416 0.49615946642418757 2.939885785937559 -1.0329080579467957
 -4.790343520813134 -0.5740868292917389 -4.1586813349890965 2.0919927501831785 -3.955316887691654 -2.1389257632704504 0.9673988338244399
 -0.8024495666638388 0.35562682067639945 0.5078268590601674 0.05849624770573221 3.9724603586357365 1.368451999996272 2.7056321953128517
 0.7431067864151045 0.16796404026104417 1.2719429567108023 3.5190716259026553 -0.25839257425778245 -0.05666192155376033 1.0881716544921411
 -0.816143035831082 0.3538970667167 2.2633866073188345 0.7680002909307653 -0.44549516618075186 -1.7110158304363818 -3.152817595565915
 -3.5656536823020457 5.133017873829121 -4.74953652734514 -4.562113952172788 -0.403410018611852 1.544103715352699325 -1.7431700212212997
 -2.9483585303874458 -2.758623334312905 2.784047802872058 2.057255511082187 -4.186616011148708 -3.236149661666045 -1.6307252304706812
 3.0042539248060605 0.04440139108948409 -1.7915934493873338 -1.3605347595784716 -1.5776160013195046 -1.4972230125223422 -1.4474452679584209
 0.06169959843994698 1.2855525872259022 0.21476127709859288 0.6348557998503117 1.2413385720789436 1.6615617758046797 -4.00825711242071
 2.095959168889847 2.367696949977757 1.8607451848134517 -2.077636257366416 -1.0824757734549992 -0.0632153631562625 -0.5093682737516116
 -1.4797358448720368 -3.34745581371028 -2.515726983912892 -1.9721144047717365 5.75178459774155 0.8847744516496882 -0.8564099442640177
 1.0669317721943719 0.8406771009897251 -0.3775823708510147 -0.6075066611340015 2.339063972424887 3.9889371124181516 2.0337674877152754
 -5.714651042989898 4.3501355230534635 -1.3277441248294095 0.2936818110025588 -1.3973276417566984 -0.8618933514693129 1.1401227881746223
 -0.7799222578244556 -0.5034908204486094 -2.3215673832017742 -3.1608137962126177 -1.8373563378268614 -0.841120349226166 -0.4501043049581635
 3.8063324824072793 0.008876612290477825 -0.4733576528325421 3.349821872681592 -2.732239098250802 0.6613318220129766 2.5363129082000078
 3.2693789484301488 0.6441748604480547 1.1642617469434344 -0.9679307433330634 -0.12695362687919165 0.740391026152139 -1.9298223228006266
 0.8362344695444616 0.14691257746917033 -3.0438093183210904 0.018792460561877597 -4.091749102130042 -0.2636147124482547 -1.496988161865351
 -2.5730004190476317 -3.954377845289375 -0.13140767572826698 3.372374846625904 -0.020786996440935946 0.20484943765097294 3.3247288742482035
 -0.9225619531822142 -3.6267879695369523 1.3415600107300978 -0.4911987407548653 -2.129125866556673 -2.243771663139865 1.7802730223564598
 -1.0041602130968024 0.17895454035659303 -5.142950572848643 -3.485826803246830726 -0.13674729277974274 -1.7176004154998004 -2.3856208843137408
 4.709176157034775 1.5580311374085745 -3.2992477422058664 -1.2579119293263537 -1.04749689156828 2.1075378996969647 1.1810017702589102
 -1.4286062739412906 -0.2176291136829625 -0.54120030623915 -2.3699338657382034 1.89937567659603 0.9322953641205431 0.366472464446628
 -0.2736612500810344 0.6243498567770687 1.790049817674505 1.1379745825760939 0.3644915499383702 -1.1684951461789406 -0.12456045292377235
 3.398556449439413 -0.34304795755443096 -0.05610552988168802 0.8415591007962957 -0.2978196726593601 -1.8720523150624757 -3.8826675274085534
 -2.2906246860393518 -1.2570278862538689 7.563871722789658 -0.18062659033093723 -0.3151190559627808 1.5809017569786377 0.7012177686630956
 0.08222201647458464 0.5188684568804175 0.7395068263580469 1.6218797350050906 2.3295451828056515 -2.0883743033377096 1.671206201900366
 -0.12494911604894769 -2.0619005922135414 -0.7824871516939884 -1.0156488048984396 2.022168675987597 -1.4615758382766346 -0.6301847639531376
 0.67529311627776 -1.8469795417699082 0.4722219439831831 -1.7455387242464924 0.446000494540542 1.8440072206220723 -0.6555051186890087
 -1.4207032727278612 3.890866683087203 -1.6848202141059956 0.6663633239659799 1.3181353982845334 1.2657267869529987 1.3752971730487298
 0.4531442358336617 0.12135453052254089 0.10115812963861416 1.6839991170270816 -0.6840938739783492 -0.35156792613995114 1.2813582165021151
 -0.588913353166367 0.02938666547120123 -1.855640117650405 -0.9614450917885745 0.4426215708230432 -2.030923779423671 -0.04327209440078268
 -0.019982350730104757 2.4699121103645876 1.22796561536342 0.6898184346033356 2.2712180667265307 0.23828359084632564 -1.8404187801250025
 1.891839972963389 -2.5909774896084703 -1.3131745697743684 -2.461652107364495 2.193699668465511 -1.5685762907488225 -2.172048419467557
 -4.644955907882774 -0.760723342247414927 -0.18608470392983142 -3.9688216628226347 0.7074668676811534 4.377251888362365 4.163781148395683
 -5.186271206036411 -1.0564379098607986 -0.7838048953769954 3.8649711868402883 2.7411978835195927 0.006071910902910242 -2.0283275400550513
 -1.7537900038484877 -1.498709455397373 1.8573749595919478 3.083595174330586 -0.7744952871258906 -1.354652327660874 0.3795487375671796
 -3.3504302477278434 -0.2998477594286131 -0.992398461464856 1.6554840001538107 0.7644414690819419 2.3341428005599516 0.011164571239386469
 -0.3464965735204617 1.5750122299491094 1.817681447594482 -1.9898064727870393 -5.0469843154241 -1.7950901460105004 -1.747281392611104
 3.1207693740639875 -0.052173595749652364 2.282646444645051 0.875888727581798 0.30275257559941565 -0.6001855249740836 0.012417470671581705
 0.5487514657429367 -1.5805375575169027 0.29230346586212 -1.0936854994049428 3.3305603734372093 -1.0308914062597065 1.4401595735187065
 -0.20834455802901738 0.06901641652567389 -0.8224022799283149 0.5418240839509426 -0.819654775244525 0.918282421897391 -5.431006396138861
 -4.2696324914024295 -2.020838655927552 -0.09793084866445656 3.767388685884298 0.32470315855864257 -2.8816620638294674 1.747238107066474
 -5.7449773071127845 1.1507655033623718 -0.13147449415046708 2.936013282393853 1.12801313102497 0.034195793568650656 -0.4213065889887544
 0.3564451775334075 0.8974716242145211 -1.1478379179804166 -1.6334203759744965 0.4666711106698751 -1.3419194192287383 -1.290317572414669
 -4.265351446574659 -0.9282521247473803 0.41433230408756716 -1.7503743772706504 0.5955742212050408 -1.1841034164414124 6.370756585777715
 0.7508164520956889 2.775645359353065 1.3609773798508293 0.11670834818582529 -3.321117126400329 1.4818606806221937 -0.4383907031469367
 -2.4925369569439133 -0.4352848731489971 2.1612747239331105 1.4537592254176934 1.8794939318794746 -7.731133084290996 -3.003502251813701
28 -0.8518903470583088 -4.059700262371172 -0.32058464980453866 0.388327729080404 -0.6406500350370815 -1.5042863389764836 0.6552851488361388
 -0.15024331555916826 0.14178995936903177 0.47731610360868965 -0.7112377257712501 -0.8060061635746409 -1.2149805796508257 1.280684506691363
 -2.4565863964676558 -1.5576279514323124 -0.8217486580628639 -0.8490712138648157 -2.096080548556124 -2.5820369296461654 -3.1154994312378284
 0.7814226626658152 1.1363163085137038 1.6417043036271148 -2.6812001847407263 0.3716152802276117 1.3218833312524794 0.3374346119626381
 1.1571258620840055 -0.40322350056887535 -3.2207077749770066 -1.5075512894330771 0.7284303009312472 -2.15885055938511 -1.3088479793736936
 0.3383630859214349 -3.5616497575954513 -1.0395345721649485 -0.9362085011401785 -2.2185604684457854 -0.3723747043523323 -1.663526312348556
 -3.3263718922894534 2.0994169803809544 0.133564998055024 -0.5169501187974604 1.0881363799456256 0.42846753150816635 1.1236032683694916
 0.3984936611210406 0.8599745367663156 -1.02141731881142 -1.8569659346428578 -4.730223326644654 -0.014863296638776335 -0.3826284023333234
 -0.6231344154084022 1.2523352145480957 2.087074185558516 0.39867793170262106 -2.0710946489852566 -1.314184603760249 -0.1458095744954969
 -1.4901710210323649 0.0838141920879672 0.08013650310913571 -0.8027394354820869 0.7907542410824069 -0.3160340573085591 -2.0783318143149714
 -0.1190322926599014 -1.6021433096471969 -1.7292653647001375 -1.448729096373732 -2.2554720467408367 -0.7352954728872648 0.25117010987630883
 -1.016411464957779 1.256479531947722 0.06122909487033374 -0.7485505814370103 0.22314036296530856 -0.7360843577451699 0.4823649231280455
 -0.89467257364984 -0.2781231357586348 -1.2539566235495854 -0.30485595863936854 1.3411494224108118 -0.4532394095758751 2.4357280763648936
 -0.4428937038207521 3.6545125182839384 2.590280798088998 -3.976590142370168 -3.35690555431545429 1.8138624421192913 -0.0013957873033655659
 -0.1902255879440622 0.37730640006519944 -1.3112854168245809 -0.5048543813321856 2.064421826344759 0.7250625001065343 -0.1391127391330753
 1.847958809915142 -2.2909536905894083 0.33051904527139947 -0.12793467729304722 -2.528280412603442 0.5141504348920305 -5.352264855576752
 1.9257622120055224 -0.9904280408615675 -0.7456845104923746 1.8180606505590424 -0.3354763690111723 2.43183925593019 -3.0828449389202177
 -2.0777497848761195 1.5758721510515241 0.6763947097995211 2.5514412949898233 -0.844779922322812 1.7474160621281396 0.8116036273699531
 -2.408834050481095 -3.050655234580749 1.0976663633873587 2.195099489743502 -0.005617353408151907 -1.0998870131126932 -0.2262993326850733
 -1.6909020280106521 -0.6612962652303365 0.9248163079772328 -1.8633513472574583 -1.9139285797558767 -1.7769347154403776 6.014782944426661
 -2.0821518138477093 1.2886546048026755 -4.174369466747187 0.33238976013086696 -1.845463112831556 5.082285301450022 -2.472701352809139
 -0.2603928019325509 1.535208915880007 -1.906174515014735 4.62997923738661 0.01639024231016078 0.8796113417067183 -3.0517529624596316
 -2.9335782193089215 1.8188175611854807 0.35872484208784566 3.2233593139768066 0.28822010770301637 0.6855220605191594 0.6804910792777442
 2.3562904881820654 1.1427669816767367 0.6249578392232352 0.8427476032880727 3.1259816205198785 2.748663760418505 -2.5089738076105492
 0.6198807161890085 2.118929509125501 0.683619553979443 2.9359215529206577 1.8189966092946086 4.039660853421503 -0.8743449735003536
 3.920934009088261 -0.36443033612692083 -1.2156335577224522 0.49571503974337333 -0.3205745243261191 0.8493024505949824 0.5125485105402485
 -0.8820538851404115 -0.3524045399925713 -1.1926452886231032 0.5389381062531139 -0.5874773767000059 -3.4901898027126097 -2.833878810142311
 -2.8798294649295455 -0.2823252998237164 3.10109916762206630 -2.52852119074793 -1.2710525815769924 -3.9738011955261934 1.706177281963348
 -4.543827874168286 -1.8855746497930765 -2.63737003050333 3.10896203608314 -0.8744600980930698 -0.013157951751068639 0.333248491647038
 2.6235589557325256 -0.4108989146078996 -1.0213288261424107 2.227161706793855 -1.4125783712769056 -0.7722670218366374 0.7087779923479066
 1.0191218908165969 1.4269964499919015 -1.279311221867412 -1.1868824614882627 -2.498412948332403 -2.895586545447832 5.224792163406347
 -0.7653063082167644 -0.8570357271475867 -2.414587763665273 -2.4196468731480416 0.36419188935364094 -3.3030910357457786 -2.8393049448693244
 0.06742587330583605 8.559778275560204 -0.02075910372241832 -1.4426735616172666 4.367340833143 1.4876967712109848 0.8707944376494167
 -0.7982926656200824 2.499917464103414 -1.415004106600959 4.539424705942321 0.23426138968955018 0.7073438109789183 2.780245420361516
 -2.1131044733997486 -4.248569423519627 0.3799105909408435 -5.651004214478081 -3.8844977206592803 2.4313461051907206 -1.1892011915355838
 1.9410657668852689 -1.4879917199374488 -0.2960060048889987 0.8449910341716499 -1.0089634903408455 1.4201733304655744 -1.591019738959932
 4.138768779577189 -2.2976497034393737 -4.615790135231679 -0.21986531048185895 -5.7607887429421325 0.8803902686286054 -3.8484868489733044
 -2.363809865870672 0.7432842260848499 -2.1351516799579593 -1.5045170596605297 1.2817457707498203 1.7467208287491076 2.947673946001965
 -0.04190544124248135 -0.0707551790092042 -0.23793045892635925 -1.5553308567716333 1.789345241818367 1.4607323793899987 0.3234009983424167
 -1.2361437437293672 0.9489437831580689 -1.2258955618147391 0.21682480415606387 1.7819145585469096 0.756629625219208 1.011855432227519
 -2.8513342350471276 -2.537309487722741 -5.298409888347887 8.382830923555483 -4.090787855212213 -4.601337801216715 -2.167730898277253
 0.968855153975788131 -1.7327374814462309 -0.6548264706014536 -3.3335387574438453 0.3882423763740686 -1.3739829803952357 -0.246014532115994
 -1.7843329200618425 0.621614351585639 -0.6283513695680872 -0.6421861479815891 -0.6188995391310539 1.4447033768482849 -0.5113004768751531
 -0.12499484855930248 1.2006583575181484 -3.161175134453661 -1.391954086979295 1.6802402987735463 0.9680800986494776 0.2585886890107209
 0.17549141666399182 -2.8934608997867124 -0.15090246067038993 -0.7885469541823166 2.0558820997858014 -0.9065898431676395 -0.8272873087634295
 -0.9609648335537035 -2.405870412214435 -0.272430852509977 -2.943547719072445 -1.4096239178580037 -1.0268265867468593 3.3553804818018773
 0.2905504976686876 -0.2604572589223084 3.4731085351304922 2.2637835587729 0.24154085397103048 -2.242792197322172 2.9935734823795017
 1.08836913738331 3.2161558313324305 -2.055435605111971 2.965186024520192 0.6948354386721708 0.4576140444103086 -1.4737526656386164
 1.161558153843597 -4.604934050254355 -1.0281172855277392 2.2717856586515794 -1.0643286707106907 1.83350146927282 -2.76105328777156
 -1.546688488677288 0.3091904138929861 1.1504338454714578 1.5629777951451345 -1.6614070864819253 2.763721621454255 -3.1553085617852386
 -2.6546180909216854 0.7330836811985642 -2.0335233681134617 -1.6506461836782114 -2.320275031473035 -1.331937705073297 0.5296750400728415
 -1.7308299527310549 -2.9511584742593846 2.4256340617575685 1.446509836260607 0.6215458269692473 0.15665972605093273 -0.9612376999845872
 -0.9222313193420553 -2.2410114294320365 1.313237668295008 -0.3593103189105332 1.288885617637541 -0.12307013324527556 1.1262306055128615
 -0.5637613415481736 -0.31054306250400465 0.641501191916169 1.9791388328706743 1.3084442190306773 -0.9761445337627168 -0.6443904501949982
 -3.015508700743272 4.415397979124854 -3.791968050737705 -2.0324626504066354 -0.7525120860824852 -2.535190016350041432 -0.227154975136243
 0.7000804780697096 1.0874065841852092 -0.662532785070983 -0.1995412679757222 -0.5428091835211634 0.59207552239278 2.5342296947875713
 0.13833927538177934 0.25750983520086795 -3.5631646179995715 -0.9877039118967063 -0.4924938507234302 -1.8449001143819228 2.2920941754908313
 -4.147705837143891 -0.5371440724152216 -0.9567689256903795 0.7699534131290809 -1.65411367781586 -0.6856954315976563 -2.7454585601016066
 -1.2526209246118578 -2.7387594582738064 0.7624352037073542 0.08247286382916677 2.105832733670016 -0.15207286405006168 0.24426730846058528
 0.18927018183096392 -0.8203211507170217 1.5399347513532196 -0.10264319162003188 0.40314368468320844 0.27143673934998547 1.8113639011420517
 2.7613194508664414 1.3420532736191069 -1.7996034806284331 -2.149880408868528 1.2542613576866386 -0.4646428112754028 2.021743148471537
 5.427464422790069 2.772247299872692 -0.496715655993729 1.174389111022719 -0.40953258498404305 1.3988185670422553 -3.38296482801382
 0.6623171461264097 3.005927492269607 0.4308560363426764 0.5182258018781156 -1.2882595789378093 -3.202017013020786 0.08242306825409206
 -0.04870239122295547 1.4099855279314162 0.08084103024838778 3.5032186410577455 -2.1220467622379435 -0.292942860593547 0.6298457152582834
 0.7452102965617629 -1.3286070636727052 -0.6031324456063897 -1.428007674966135 -0.7075090034846089 -2.240337181057529 -0.1469655974523134
 1.7955003271325312 2.1280284175908806 3.7432965727462406 0.8588516736998808 2.5445599125294676 -2.878741449905943 -1.5355721832330287
 2.180810605020513 4.597616561056274 0.7543476040744439 1.594594881159671 -1.0778572115805762 1.6526682773682462 -1.8042409596810722
 1.099563993708448 2.649344010496864 0.12133276227227499 0.3621571194559434 -0.016288535643294442 0.04181905782129105 1.5291519839829026
 -4.577085930628041 -0.138718142351399 1.9941468187081686 -1.385485112760685333 -0.13761509916612766 -2.1862615462430286 2.817573793065472
 -4.134955910346819 -0.3012602968775718 -1.969601092642063 0.07618193772905398 2.936016830284057 1.4271950815864998 0.5866431627027996
 -5.821502806018943 -1.6048105140659639 -1.4028244601184467 -2.1529681311569364 1.3461710902632198 -4.555257529723411 1.4648254598851624
 -1.9394132349010849 1.6679869913795917 -3.032490240264196 -2.6299865846050876 -6.424120222084663 0.7485600158139524 -1.4886456238581842
 -0.9450654645045343 -0.9510476295628157 2.3245502680043373 -0.5045225496121134 0.5573456175927866 -0.8385451458114772 -0.0860081265766387
 1.412355369359519 -1.2989333200507582 -1.6126524559409434 0.9649173163205951 2.6189165410301958 3.829333130993301 1.468469480550545
 -2.642052518982177 -4.801718117307872 2.560391612146639 -0.09718683026382613 0.1734526699809385 5.602196358893959 3.3995512721109735
 -0.864283920557627 1.2706107533817654 -1.2970817157925447 1.017190886108727 -4.579425944563369 1.529402674371213 3.433876069765749
 -0.5080928623890142 -2.2145116394926134 -3.5843502590808716 -3.6112314580132923 -1.3234683431123369 0.8178756218578657 0.5539158860195526
 1.8841674534671424 2.7355749202973447 -3.6556723763849335 -0.6923561816644183 1.5850485699830683 2.306539544423522 -1.9433418820920583
 -0.4233064317205626 -2.656188497461894 -0.7229899179336454 -2.9729575224376656 -0.4681907730296414 1.7357586231357531 1.9893593057050467
 3.7144944045764325 1.5952885852998135 1.001236489104194 -3.11510980702997 -2.555419797792674 1.7827638668831411 4.122675709707582
 0.5563678824710194 3.7783224212919073 -2.5171344530882136 1.6674875909361888 -0.15616299969001518 0.872132028604839 0.03047862875705313
 0.20080325568889607 0.770488866155521 -2.4727015382642006 -0.4678714333257277 2.172899211845219 -4.248231135996543 0.8596868477006192
 0.803170516627222 -3.43314150515165734 -1.3121044786570943 0.9361596676078792 -2.0528336991294234 -3.630739065014766 -1.355179537211206
 2.5284550986217567 -0.503018444433555 0.11309374645611918 -1.1758686645712433 -2.079676064007402 1.9453154021349022 0.09678170556965077
 0.03932900978890131 2.4270499526229004 -1.0870954081538848 -5.97044836274239 -1.5016722257157356 0.9217723962975816 0.7337562641672555
 -1.4843115956211386 -0.43496822770444554 -1.7608644525670898 2.3646090255414474 1.5008430784633087 -2.9443862958841835 -0.4904416281154788
 -0.6170306976545934 0.2476846728545153 -1.49410149751405 0.8994264072538684 -0.7985263604277286 0.6298131035245208 -0.3785486775973591
 -5.789635754266843 -0.19894051438214874 1.4854540713097562 -0.9478328307019036 0.8198903982694298 -0.2995609945217041 -1.4378887186259761
 1.3373836421822212 0.36788651711735276 0.15380234073545868 -1.6064936361980366 0.7594700882461751 -1.1713259732239414 3.464445194526952
 0.929793075153802 1.3683531389760546 -3.5465063931109775 0.7696246383606035 0.782778146839842 -0.5186381025394317 2.367174618047979
 -1.9586726298498678 0.8127507715892981 -1.0620218484197617 1.4813530944135729 1.731285081387259 0.38052957969990253 -1.7309202077496944
 -1.5079382499508531 -0.18040343146527435 -0.6405392068314087 -0.8358345280338462 -2.30514180121686 -0.471770278173377 0.1635792924600954
 -0.7618771681801886 -4.052791976302128 -1.0525840699665405 2.742653018511556 -0.3858226369050096 -1.3446283227494151 -0.7976018865954052
 -0.9464432303902999 -0.5938789690797389 -3.138514747841405 1.6311258086500005 -2.6308644846392832 0.9667902106237849 -2.1119754608788455
 -1.1228369089941594 -0.10977238599942722 -1.7204116738877306 -0.5168592715822568 2.3708499094519926 0.13558490888911848 2.295799187237949
 1.14870738949827 2.1632446821854674 1.130880308724547 -0.895958258242262 1.9183124808510779 2.2454552160749746 -3.446545958243377
35 -1.6445835868421128 -0.5198993506947565 -2.7730880984133743 0.11751645205569625 -2.0117556090688398 1.471848900926244 0.04780913082484206
 0.0631905827801523 -1.2443811575468275 -0.8713712488127457 3.3756039877345647 2.6022982413989095 0.42741900269061944 2.2070588120589925
 -1.7723537127742253 -3.8720503461417914 -0.901140785997703 1.6427636374720176 -1.272594060977005 0.20601455092396836 -1.0193007741923672
 1.2991454951580697 0.5565805893741358 1.370628923348751 0.7790139488675705 0.8385122902357419 -1.0527293673606826 -1.241487315614613
 -1.1070380392594101 1.1786359047206334 -4.708074430841929 -3.2864547148691146 -0.2816553130510988 0.9013475140730238 -0.1539905633466732
 -0.7317588131742397 -1.2726166159049437 -0.5461762657289082 0.6095899012692395 0.7906524820196105 -0.39858739760211376 -1.160285022673215
 -0.3575261275657871 -2.05558686146447 -1.329278868858787 1.9001362194655775 0.42129042716939485 -0.5584537603223555 -0.6165192495080623
 -1.7715339096725684 -3.0143059552412765 -1.5958901584345637 -0.4525040441101455 0.48763087977357605 0.7809202341589938 3.33792015550436
 1.1057587708543857 -0.764066405803532 1.7446353333561029 0.5782739816907135 -2.420492518302686 -1.5164245992216967 -1.6402187334642417
 -0.9193700488134612 -3.3686128443198746 1.377677178810324 -1.8373389324246736 0.4672434063252163 1.5796497425548421 -0.2750403587385554
 -0.46673398680328 -0.6539393477540455 -1.40859385638764 -1.5400412219171336 -1.701606541715072 -0.8227764274876623 2.793279326253889
 -0.018971681641429324 0.8286223666378697 -2.5224891269834924 -0.24237955679128617 -3.1719168844350714 1.504164644983113 -1.071239997529995
 1.1792289914869012 0.792157949797029 0.14496106599427278 -0.5808138833579801 -0.6262260008259292 0.5860015190940076 -0.18237582455661958
 2.974142716274797 0.6570863722596335 -1.5393849768391015 -2.9924208656394193 -1.102375005795928736 0.050708642125532936 1.865082429347439
 -3.4217103061625567 3.184933565243062 -0.30167117556854095 1.6048026277175553 -1.1606957287385669 -0.47821139717469263 -2.229217703733197
 -1.0650242144574795 4.005148152494029 2.5419015617332716 1.347609959291371 0.6589519590233781 1.570252075020207 -3.4679170047872714
 -2.2757641146366723 1.563084427468785 0.14021444422758952 0.5556037151190263 1.4826705625553607 1.3127085584521354 -0.2488811701246183
 -1.7259039712919524 1.0380874319816262 0.8018180317539523 -2.2579655804001355 -0.864633857259067 -3.152101098595469 -0.3682422299277304
 -3.624255900170751 -0.4552917936481801 1.3473091451053114 -1.1101556203691025 -0.5616315613449315 -1.3075527567771112 1.3003903412720204
 2.4782244658416674 1.0764070095883238 1.8980925390224554 0.9609255495080269 -0.7546445693669274 2.0226583970429206 -5.221508566169494
 -1.2522076109241034 0.3120157446884832 0.36040843302659814 -0.7836410634570246 0.08430799335967847 -2.007856988247534 0.5890547971762886
 0.8425717246792782 1.4940006194375188 2.7277392491237338 -1.6912923527312445 -0.20089586054349556 1.5318866915982072 0.5443906650992176
 -0.5445082194269251 -3.46260301038247 -0.8521795794648492 -1.0724414804221558 -1.1338236387042135 -1.1892567893849353 -2.0103154821222837
 -0.8257220215132275 -3.131385405068587 0.3360601027688215 1.0634245700721596 -0.09336460651962872 -1.0244021937897143 1.0260155929331916
 0.2309528022379479 0.16910466273312624 -0.33130587463978844 -0.1257006054485452 0.07958095728296596 0.1854231504695604 0.6111538294853802
 -0.615343248904815 1.0084785441732236 -1.3946937368026582 3.166416746730476 -0.7643827771534437 -1.468989722286336 -0.16905195574432447
 4.149495872343449 0.5268426699695757 -0.6954660907780047 0.36997833036130057 -1.0427723914591225 1.6169071955931877 -0.8181806960298702
 -1.3441180866974434 0.924704088658292 -2.00052332351230137 -1.1504646347069254 2.530234242146787 -2.4682630089042488 0.6195985332529437
 -1.2266943719887529 0.9234812060438912 -0.6555843350516461 0.263025949495006 -1.956876467274012 -0.9850278653868495 0.8405322697786078
 -0.44353012253503005 1.0835650492578575 -0.37500746278264835 3.178240355006118 -3.5828936538301144 -3.77941330004701 0.25666463825005503
 0.6484054173814678 -1.5177770815238347 0.7262897980499755 -0.28468646783291424 -0.731338693772763 -3.169049495362577 0.7514832351981822
 0.7272614866851087 -1.4394565226974831 0.40772483046880426 -2.364739283900455 -0.7395219712147225 -2.3883150986286728 0.05303806848733625
 -0.061954554645322006 -0.163558030103331 -0.8612329678819078 1.6132377865529643 2.851655066819984 1.1982280737785491 0.8888835614658834
 -0.4101615889494159 0.941065757154962 -2.7711619536073835 3.3592250184255765 -1.135951083124417 -0.2369644065881862 -0.6223338848986512
 0.6565143223610059 -0.1523291132373754 1.4988974222573013 -5.710340084225342 0.0031531583475104806 2.221883831223433 1.9330234289442452
 5.1036552519264085 -3.33396975829999 -2.02635327914148 -0.2349089235896637 0.48248187684718186 1.9817005854611225 -4.31222700293115
 1.9280996844849938 -2.873127560355838 -0.6095956018513649 -0.8241457651593087 -2.5593508798735924 -2.66133098323683 -3.556411684662863
 -0.15811203021444137 -0.40321869911920627 -2.591656030315519 -2.140000651834077 1.3270654682000957 2.1404241215575404 1.930725275815688
 0.8216291918682355 0.27147932857006685 -3.4607143224261567 -1.9426350323197348 1.462319668238161 1.4553130256006162 0.9277922716055366
 -1.6753715329752394 -0.7364913229542303 -0.2366648768430952 -2.454592002324981 0.36680272374463796 5.043628121213862 1.4791954335094462
 -1.5670774785369437 1.106137566842797 -1.7060804711174247 3.442433906419169 -3.1960840485679882 -2.023370912226207 1.5851348309493423
 -0.819217641035304338 0.1310432447591878 -1.2057578747267914 0.6014845460801916 -0.18045204938815038 -0.23939511945286343 -1.0935252108200366
 0.9109523514326181 0.7508459243760868 0.46221222446030863 1.1308740523519158 -2.189996525896428 -0.32998246247146307 -0.9975432781441134
 -0.6543529640584471 1.7118096017480782 -2.842740343588612 -0.5820446676514722 -0.33766710905838104 0.2585405603898238 -1.0916504970087173
 -1.0287628792735075 -2.220119261508873 -0.4768993466264392 -0.8891301608143426 0.009090492842104569 0.6895695001149443 1.2601132938505664
 -0.4474237423807112 -0.13183725620182682 0.42546154215106324 -1.0033499544650542 0.0014862576324396067 -0.14130076778268758 0.4700178163018286
 -0.6749019582124212 1.1665351748642234 0.8991480290371096 1.2993077260000396 -1.5949181752945782 -2.383950297737691 0.1297506786526816
 -0.4884767381624573 1.7282487336852395 2.8538119569347886 1.9402732045936202 0.3275495313275728 1.2445281938974273 -0.6396427835092829
 0.640226359478449 -1.025413178510971 0.5738788151113596 1.1491507309946751 0.46256586676439054 -2.178405535964165 -1.3182721176816992
 -2.4244051783779064 6.697072888473313E-5 -0.23204157947326476 1.3538498527159077 0.603208971208674 2.5960083255116784 -1.7567960462163188
 -0.2903850865334013 -0.19031659861124015 0.8649506488531787 -0.11643317723844997 0.021520370620272518 -0.20661318637812864 -0.3506556250515102
 -0.8520870863601705 -0.5814422561627326 1.2595263656857838 1.777887209114464 2.4170424914018427 -0.3170393348248334 1.869076342538443
 -1.6383611667638487 -1.2469638560195129 1.403634188348271 4.050135492001664 0.69758619017535 1.415303476979214 0.5179242866094839
 1.2168069996033537 -1.0980280180248259 1.3930533269046317 0.8089616575223405 0.65261940618957 0.40629508789868657 0.043279511177276006
 0.781991022344753 1.6331119268055976 -2.333697874861606 0.315163045200397 -0.15767744170408357 -1.950042857470655639 0.6636451453862695
 -2.1813014775659587 0.4265287217135004 -3.6612660890995157 -1.6907170018876887 -0.9020937547949226 0.5963590883879122 2.134848860348257
 0.09476554797256835 0.849695605060948 -3.8299012184595793 -0.6865272655210687 -0.19076217300502776 -2.099402465449889 1.3745276074951105
 -6.481124206401845 1.964467211837006 -0.8382567014363368 0.5294537641838254 -1.6451662134730274 -2.309327095961613 -3.60729398296889
 -0.7524769231370165 -2.299738895812935 -0.5310934610994714 -0.6004281654898888 2.0004621509789624 -0.8528618290676557 0.5259436737578554
 0.010411356136855694 0.3783101905645442 0.019034830875211663 -0.37469025685260826 -2.0885316372706053 0.1486980418702602 1.037711899479412
 2.0319893223170706 0.16615779533827194 -1.2936152579964295 -3.4696905509363316 0.7323621022437914 -0.9011533113759523 -0.6886072680438529
 5.384939928221754 0.26851631115190233 -0.5365663201435575 -0.7914724864213496 -1.7826595148404658 0.9630517869922364 -0.7449608728622867
 0.42707508675632455 2.5574179319825503 0.7473835032485772 -2.9188274690505747 -1.1355039727999832 -1.1626549083071782 -0.8573109216306728
 -1.235458523991219 -0.9396660764595341 2.260711598041515 0.6759801836769613 -0.9588970664991424 -0.8049766899111045 0.9974568976718559
 0.32313581737542696 -0.9932534728993929 -0.11327030347002309 -1.55669277033653 0.11007773493014385 -1.6426866306935939 -0.11166385025807028
 1.1808964673194757 2.380968548965002 3.6084700759384605 1.8321122416055484 1.7736553410334266 -0.9383637177203016 -0.768244891959271
 0.3390361851768683 4.395037882836322 0.7083372761807185 0.4171853271549877 -1.6636642108823003 0.14860354221466132 -0.539973296042447
 0.6755829299522524 -0.7915613188550116 -0.16698493073234066 1.0909391283421193 -1.2545991723176388 -1.4083485595277212 0.37912073517320594
 -3.87333451643792 -0.42188500107181237 1.1504192397811412 -1.75066066291373340 0.41732248520033005 5.295512133528754 -2.927704144569072
 -4.713646415715909 -2.0590711272726137 3.0365387501302394 -0.8953100228780826 -0.07639888853968572 -2.2252057571766026 -2.2014818885157155
 0.02539103438296321 -0.5740484409454042 2.0900434032180644 -0.729388519451586 -5.371864995318775E-4 -9.066715453818063 -1.3277803188096444
 -0.2910165134888545 1.0772671793217887 -0.05043392405937108 1.7259442961817781 -2.4396288022541714 0.45560872498874383 -2.0405635416391936
 -3.1244369104046092 -1.1405932312865426 -1.3746683467129814 -0.3069207089165521 -0.8493748693638676 0.8594765160858182 0.040969383581438756
 0.9035600918427327 -0.7161777112404225 -5.47300038226699 -0.1929210138280266 0.7908304805437165 1.2395043250861075 -0.6061757707690354
 0.1616229975298275 -0.36749259064146855 -0.24010078759704231 0.08580440693607505 0.7647718072379472 -1.0436744002375564 -1.0418930709168646
 -1.7792731460259763 1.4991002791770167 0.04141713846386411 0.7911879291657999 -2.044924711598024 0.16585519528001147 0.44710008669376333
 1.014694407295183 5.853877575212889 -0.24949221180059172 -0.2674860925426645 -1.2225929843914196 -0.1610945977163216 0.5450635556821524
 0.16687499247760232 -0.34036381052230663 1.1719211079947762 0.6351615120510925 0.26400954023234957 -0.5581028464583664 -3.7234312474894984
 -1.2513644825524954 -0.956588711265512 -0.8229406920378214 -2.66711855137845 0.12437044212258347 2.736920849639907 0.3180649561178643
 -0.3129131322696867 1.4558788357119576 0.9261647010585502 -2.02003603754552 -1.3289734461075986 0.17815359118646246 -2.146766605587564
 0.7200349357711707 -4.295224476120763 -2.791220318243685 -0.7443825476699538 -2.2874967112426776 -0.9872894114911741 2.479470820391177
 -0.7423769216085968 0.6384931851857822 1.8072118690423642 0.17149502486654492 -2.1795425934722834 -4.442419416560165 -0.10536687549214149
 5.705450040002845 -1.116585398301743341 -2.816404279687904 0.6655341361225178 -0.9552557656847738 -2.350845284585259 0.7462975318934503
 2.3224491250939887 -0.27332521190766557 0.02471538549137235 -0.9189048914887741 -1.7511871253308222 4.142549397872081 1.586460533675928
 0.22908353822654431 4.060157730888284 -1.6332331830992521 -2.511229871970654 -2.34700464710989 1.529310536978945 0.3063332627937076
 -4.222484428786249 -1.475620046445806 1.1984488544697598 3.68064643974573 2.574753384935471 -2.211139374878704 0.5961997647834534
 -1.7076581417635863 0.6396140176776357 -1.7069061324507486 0.6041276578615412 -5.158860238616619 -0.9314290722734817 0.06529576185946999
 -3.250883326765311 -0.2697173415035901 1.1316719112361635 -0.8699237536745142 -0.5767773974862581 2.0964867227809343 -0.7801033319141643
 1.2391828386998112 -3.432319898991942 -0.9004465837192527 -2.329514509028595 0.149852448556758 -0.013483334946924984 4.604475303720648
 0.3773833796552526 1.09538253245304 -7.182322452233113 0.9038627829180728 0.3027666598099858 -1.542569994023659 3.1566596375144127
 -4.209210369165788 2.487527211719728 -1.320308418271801 0.9395450680150663 3.186563274334376 -1.3082406354056932 -3.311802578945005
 -4.672466667313986 -0.7065111460778868 -2.899347859086984 -3.5597900262158957 -1.0947038141043735 -2.474526491542596 0.19711768167848034
 0.6897095389350242 -4.402112301839929 -1.8699111654940173 0.5951118584911494 -2.5459001957937897 -1.8677063578997735 -2.07384583300345
 -3.48932570496055 1.1435509241712716 -2.3008103666226654 1.9481116293550802 -3.603015700343126 -0.6842741656874614 -0.3263842210837651
 -1.3160877662404933 0.6209669265369426 -0.294977697295804 -0.4713463824215131 1.5434161154853925 -0.590145199295383 0.29629211619260515
 -0.05260169834992247 2.1437993593447606 5.4804590088215805 1.871583627281554 0.7011989346924073 -2.3240026264422844 -4.669772129931727
42 2.0474504909045623 1.8614511441251564 0.963677308004504 1.2889287818948267 3.8593158713142435 1.8763186801787441 2.6476428804322385
 -0.6923896168214025 -0.8177141041036728 0.05636371545607054 2.6287529732419674 0.5951602349523593 1.5410531110823837 0.2897818759939549
 -0.19451619519608468 -3.8792873552886142 -1.4611564372792483 -0.5801829539718916 -1.1266357883224185 -2.4419193640427426 -0.004583679223554736
 4.310031475512182 -0.42674493083821596 -0.8499429247090802 -3.7004903594883545 2.982826056006477 -0.08497154143645635 0.7536348393911635
 -0.07360589648448693 -0.293454637178876 -5.7809700222880585 0.30783865209924327 3.363105263017302 -9.481005770695 -1.4073455512954673
 0.27937343061047765 -2.8030516033565083 0.07681180184321057 0.2446146369091449 2.188062757973233 -1.9409834174272917 -2.945375041332398
 -4.277824798965895 0.2331339825259196 -3.2732799596624704 -1.2906732551412718 1.2084762284940522 2.6820496911158673 0.5655882267635455
 1.7714062646728808 3.934146503249271 -1.1164773565261041 2.260015608216322 -1.5392609430540014 -0.8078120982506904 0.9239899131344959
 0.7463929318910967 -0.6665687805813804 -1.2750623483567487 -1.824743250464836 -5.446040975575159 -1.3253239999854634 2.3313559370042864
 -2.6861727743574484 0.2880542892983742 -0.269322542239889 -0.5223506799731311 2.7786108642948335 -0.22623020428978308 0.44380727984558027
 1.3110679289218763 -1.6473598752024814 -1.1405852697896257 1.2186570764663958 0.7092935392895222 0.3282278994336978 0.030358878688971316
 2.6145579424723877 -0.2795278354759145 0.950318615920493 -0.6984665955712795 0.8634614269414609 1.5181100366500155 1.0420104297077954
 -1.6544123219633742 -0.49021014140319985 3.333316702380851 0.07096418232069704 0.7782654688132361 1.7193979564899735 3.71325282218038
 -5.327639815572512 2.593557192899887 1.776948138323526 -0.37543386311905724 -2.83335454794235243 2.1610419524978073 5.711825156015487
 -2.0496843569911856 3.143453297316908 3.0274439619766573 3.77806663551951 1.8291468570638763 -1.5725298648277481 -3.447575934434247
 -1.9802246989973342 6.2363074319096174 1.8059134648685207 2.7457557379004487 0.522794457050117 1.8983591484330573 -3.27703391523413
 -5.016963265056893 0.10418583964182737 -0.5544000202707768 -0.9888605510755444 3.1796948761254153 4.401319187892403 -0.9231444673933727
 -2.2310529108052646 -2.772548286518559 3.030200472144157 -2.78030300037263 1.199601550806033 -2.981217509175796 0.1639482099492464
 -4.231343672641433 1.0898423732633813 2.7867810508224062 -8.723537515843908 -1.9893264128133226 -1.1679259930801433 -1.6562242175735151
 1.6779297353887253 2.4339064956455205 5.119299407956756 -1.802607388843919 -3.0343863140747884 -1.0635414308019062 -5.091818062340036
 -3.5059968952003833 -0.6852279259626999 1.6482965341956277 1.8971291242291204 0.7469316559139636 -0.8561113182272974 2.971203578151006
 -0.9716185202608745 3.7210472285531737 4.690037394536073 -1.99903551684971 0.47332337486587356 1.0924510750207401 0.4442158679406466
 -1.0303922085723127 -5.830290776605838 -4.38256448848086 -1.576724649536409 1.6654262505154236 -3.2279600874106604 -2.0310568298769858
 -1.7404610640609617 -3.34406932364442 2.582006377837925 0.6784008545332049 -0.47677891803518496 -0.8389218098416356 0.0034429939632366763
 -0.6069097085036345 0.3760493250564526 -0.4913457067609394 -0.3750851833111147 -0.08507356136422874 1.5960765652169961 0.6787702881745128
 -0.43481785251679245 0.3290357351428024 -1.8367449888576175 2.564703352727804 -0.28169022706318675 -3.860255310168518 -0.22803580898570988
 6.796362924333541 0.3028207241053885 0.3893040755237617 2.8187281795759422 2.103477752130192 -4.123255608151154 2.5045377029509734
 -0.4424462544536588 1.5298952996133528 -2.506448620616777844 1.1970734566521417 2.617827470675579 -3.7240256119040223 3.257926230477913
 0.3525339822022316 2.7720868289816654 -0.9332036356437509 -1.4206173135964675 -2.5183596600552103 -0.9438502386882882 4.895838205223183
 2.7913842710065135 2.3370734714294077 0.6067590257702894 1.4313854206320764 -3.1995954214875177 -3.5227064882487817 1.4652327549056772
 -0.16461555396542774 0.1704369827588997 1.2439790857191402 0.4944393528187388 -0.8285181960589382 -1.5018622195988618 0.6664671082305389
 2.002728290060876 -3.7067094230736704 -1.6139587708576877 -5.160010011185761 0.1760088589579032 -3.284320082685683 -0.9504683282600418
 1.4218070524030801 -4.210185188715204 -1.593784410559656 -2.308575749157282 -0.542779937812116 2.1910851908415125 2.579621536059918
 3.4475992397249056 -0.7006482419622982 -1.1376565429504453 2.3816571451370097 -6.1444548627507745 -2.3409309774115425 0.55229583728489
 -0.09153073577697016 -0.66754373066589 0.815847135295967 -1.8923608427623464 0.06721876732547702 0.19259156200312838 2.6499738156555965
 2.8692715749696354 -2.8280976834215514 -0.0075094035642202794 2.244771262932583 -0.2964460871558202 -0.8243964566861443 -4.616426028734467
 -1.9493343379629595 -2.3258540157582157 -0.7529301332343036 -2.0029705706848993 -2.4709594898475067 -0.5833608469521049 -3.724047788400817
 0.9151109081990138 0.3337701800252822 -0.3572699585372882 -1.466522944037528 0.8575349478320505 1.0332070932236734 1.077248844792372
 0.9223529826455463 -0.5169950173494171 -0.32845854193927565 1.39000328211454 1.0998941020237536 -0.36219139219200147 -0.04625920792420616
 -1.9553495672661458 4.406417916499235 -0.9316071469603427 -3.098794511052995 1.0971323998380431 5.360678877410098 0.6274203749346526
 0.6198998907292222 0.46361021566675664 -0.48439035184574875 -0.2888875033943642 0.3683477174422948 -1.506697470397875 0.8152056995808854
 -1.43890824950137245 0.13276031180528639 -1.743085453305039 -4.957288170749585 2.561874493677777 -2.0478313181145453 3.551235688912035
 -0.9647415037457786 -1.7386871137871303 -1.983817051740174 -1.044300456073648 5.78820482395046 4.119761266157354 1.1337133546713276
 1.3300286389204459 0.04083856302153785 -3.854003519014738 -1.607935510101225 2.9728666713846685 -1.7482086840021576 0.9167055478124548
 -0.5365535673279836 1.4844882678321507 -0.4208809121181184 0.1309367804319801 1.1996100838292423 1.539146329419683 -2.944366919825451
 -2.2566694852677034 -4.980158968975645 -0.27928967935796895 -3.0101625148897098 -3.438331312380061 1.7488596542981827 -1.4395891641000027
 -1.6295199074773363 -3.587167533707447 -1.1252125410980662 1.6800579851457325 2.8060456801909575 2.341802462718067 0.5564627151170108
 -0.2139958509926939 0.36389626279669135 -5.41831491546483 -3.3744425068021537 1.7727312209213553 -0.4868785846384318 -1.610522561704963
 0.3857916601121078 -0.11224095628958794 -2.150786620752553 -0.47256388987522124 0.9975248139587956 -0.7109734033983846 -0.7813345206681052
 1.8961237950313166 1.9838411805327865 -0.3657392895010116 -0.19189359231747352 -2.984130566047615 -3.3855936007099876 -1.120428653020311
 -2.5079895906239584 -1.6843862180087672 -3.758442131250751 0.29273846006069626 -2.660966079227558 2.0674977152335527 0.6397792440463343
 0.32205206103176964 -1.2708279334856107 0.613393735010476 1.053000972783838 0.4174437766337252 0.09324403292484212 -0.4520549047930666
 1.6252806034939218 0.8248898118732336 1.0722808039059328 -1.8819945719137523 0.04054353745666388 -4.538095080310466 5.811727018567619
 -1.312534766456264 -1.0192793897205925 0.8323989087173436 1.6719311208494545 1.491108040884368 1.0864618968910915 -0.6980331637278863
 -0.924157285720659 -0.17354048342610204 2.367095105929544 -1.8520348735017709 -2.1418286505737347 -0.1500617959087330346 -2.044578149217394
 -0.40678308762139387 -0.9984815191133769 0.07974292875915262 0.7835073250845762 0.7533730728358533 0.6346295718784257 -0.8198860357394578
 -0.019765668989316084 -0.7793228859779038 4.655294256984022 1.5714768008866242 0.5885378139749162 4.484854469306795 -2.4608771706160537
 -2.5558995088068146 -1.071136846971479 1.4983991058314208 -0.9843825416687468 -2.2426838176133383 -0.5398718601265161 3.2524005659242605
 3.259415356808089 3.67891609097291 -1.7415566790916064 0.2956453099653452 -1.2110233053672204 0.8483577637557709 0.19806808443765936
 0.4260535407038345 -5.77515862434839 -2.147895118741217 0.19713583649255648 -1.7365230623785366 -0.8280014723828097 -0.03671171814481319
 -2.2108338569658663 -1.3225434017061022 1.7428581835732306 0.43248454213975784 -0.6445447203577459 -1.8962245491747518 -1.814319203111636
 -3.3040205161509912 -0.5949197997648572 0.23819933059866527 2.8869948061257102 0.7715472504114629 -0.8110865003193789 -2.2719821728824914
 -0.7632235310356664 -1.6942822204598804 -1.211208147210356 0.4050089262421082 -0.45868619162616014 3.652146525188143 -0.3254005986667645
 1.2359013560983703 1.8340530926811967 -0.4780877599931586 -2.945572875401626 -2.2677714138663925 0.9365803894808601 -1.8145039122924838
 -2.1087561011392 0.7270892716485401 -0.6500732232009002 1.1560691929805273 0.6014671335616992 -1.2925872342027296 0.12030424961493877
 -1.1049628279832968 -3.713976140895661 -3.212918959684216 -2.608005672149259 -3.1058348908568965 2.1869847064979826 -0.38643475160447005
 0.4832643720887612 -3.996402651022521 -0.6455694144914353 -1.262966444984747 0.4940249977392545 -0.17190331365438283 0.8229659697086026
 -1.6111588738536446 -0.6667431296694857 -0.8474954505825484 -0.7701786041977063 0.3358135767468209 2.8978895546984216 2.7760299264136297
 2.302441527140642 1.0335260176025345 -3.3632736387837485 -2.58985416227230347 -0.8521068046148649 2.091129339645614 1.6971393031574418
 -5.888429449440835 0.3479139359218136 1.6736915184998695 1.693490031368175 1.6205642018739919 -1.2525793180979907 -0.8364512731603755
 0.24224653821680212 -1.6851751264045611 1.058421311381303 1.9830221659818492 0.5763509956971923 -6.0226255217560505 -0.8129031527392583
 -0.9028560029528577 1.4369185763424583 -5.35281520417588 -2.369642075369546 -0.724822735497678 2.2595886902081985 0.44413700616239443
 -4.5339331776853955 0.5982223354641187 1.2457520242041102 1.6830445890506736 1.341507651170705 0.5015788108038141 -2.735711091344568
 1.7111653231076192 -0.13003918888000074 -7.059761239003935 0.4247024902822513 3.953181664004984 0.4728832959804837 -1.5952490819599179
 -0.4523971252989503 -2.569068923997296 -0.34065064698187114 -3.794550609233893 -2.0574733452675025 3.358504074480234 0.9381423885527083
 -1.2173118788574735 3.6900275332195385 0.823661472273374 1.0947062649568982 -5.73087704664357 2.7103066865898136 1.1029965646443918
 0.3910701418536804 1.89338934698412 -2.687312525844691 0.46459578602111284 -1.2479765837145822 -0.6996207844224602 2.553203959914629
 1.4190804497007858 -2.021231741178411 -2.6191450163080283 1.4292823197440854 -1.4727157124524086 -0.9639359963064469 -2.642008274000369
 -0.6544669467601902 0.19920447662653282 -0.9880352690925576 -4.307907612623784 -0.03368329367339727 0.5552658325514206 -1.431075478641706
 0.3349607590648178 -0.756024386134603 -0.010712761307767455 -0.8883514765984969 -2.2862082139820337 2.3321183377300563 1.41280718844853
 -0.46726248605425635 0.3572637050195426 -4.406738946082835 1.6556306498069786 -1.6394103846570807 -0.7629683529032433 2.0500436962817643
 -1.460241147709815 0.7613978994166779 1.0107192358885546 2.8889489920088254 2.877026095320389 -1.7237088696490674 1.3778757571624185
 1.1781799222726324 -3.9258857676149760 -0.4497454323408223 -0.2186208446073746 -0.10328704204052144 -0.5021374420972166 -0.40184561190093243
 -0.5072974059534987 0.17080057110709954 -0.5842299473960427 0.35741611790046446 0.105972144805772121 -0.9834324607010916 1.4783013696977125
 -0.981327057817648 -0.9402988389516241 0.0630438184678017 -0.42013433173167186 0.5469826116433436 -0.7356717307522974 0.022865855442174378
 -0.51545988468605292 0.2933310854762244 0.45679455103761457 -0.3446808601365063 -0.13358705691849462 -0.38528621405405383 -0.0876462251358092
 -0.11516240258986526 -0.3507217516445162 0.47096410002860745 -0.33632744954789333 -0.5856352341612443 -0.2966186055768047 0.9679711666345878
 -0.4939517608431025 0.1520704497553425 -0.5408158843968167 -0.5400037521906195 -1.1039538493009233 -0.9592838515746307 0.6876662196343951
4 0.04524874448212665 0.6832860240753896 -0.28100107129210083 -0.6228874279740644 -0.32429163708312925 -0.904119970286877 0.6094803250010659
 -1.0143040403059917 -0.6411058326030739 -0.26788814152225195 -1.0209614053269915 -0.6954884138190176 -0.5553634280475378 -0.6681263977462393
 0.5171163029781269 -1.123544880960764 -0.9377716217947507 1.0188489153493105 0.13250739339511783 -0.47117076130122956 -0.07941051994557594
 -0.8647770275622799 -0.40146284322458886 -0.8260313284596124 0.05506542598641755 -0.5446527341249761 0.0873971606506319 -0.8045648973736124
 0.48883107827899247 -0.45287590366818817 -0.298801373075586 -0.24650714879271637 -0.7530659738983101 0.47928427196069223 -0.6168183215021658
 -0.3958900390539889 -1.399756214806583 -0.013975008971308676 0.8253912530548038 0.072825021230732768 0.1654433466930724 -0.29374427973529477
 -0.1596614224017727 -0.4903601093689901 -0.9105746973613765 0.6821848261490391 0.49962723808688364 -0.8700654719532526 -0.879997728688342
 -0.5849936322187229 -0.12271178134354982 -0.3515609073291245 -0.08303078713344096 -0.679258120051638 -0.7105590691051312 0.39399997984252094
 0.022459851332823865 -0.8276078509072382 -0.24946351928513485 0.0973437609121667510 -1.0614297549682412 -0.1182900577629731 0.60143031541989
 -1.8257998638451693 0.9106228140509208 -0.6934308017193829 -1.2430665247207784 0.5028519379278854 -0.5826316069460524 -0.1868615217224187
11 -1.1332070174393467 0.020012111930548825 0.17092765729524426 -0.4740066362395917 -0.26770884652511306 -0.9203881797886708 -1.4084730118075781
 0.3457645759927267 -0.23187140988558788 -0.0667606967747614212 -0.7734150260726028 0.5835709510262079 -0.4289001679146713 -0.6873709644429419
 0.17612202867645985 -0.46581405428229133 0.0529736326529859 -0.02044338812138015 -0.14845497287415355 -0.1677744568301524413 -0.18281581002644423
 -0.4776046466968879 0.0765484849109302 -0.8149259877790297 0.19307135340115913 -0.6362100331853383 -1.0621629556679155 0.5415820476042943
 -0.2456847125757322 -0.955667938974356114 -0.6211462042817734 -0.13887402479375296 -0.8074514248017486 -1.1755303412801783 0.07939482360098776
 0.6624264223314514 -0.1257773425814292 -1.2423641248517874 -0.228995863080906 0.56416604739906915 0.4963783652458677 0.4327868980577547
 0.360116684554226 0.24127842100740587 0.2971127411513722 0.19128804513959372 -0.31491483090502637 -0.5054184813059065 -0.17804077771904187
 0.2322429153544583716 -0.009847509569716983 -1.1225841347685606 -0.08766267511675602 0.3716309324982573 -1.2167559206622056 -0.23770003723349664
 0.16311344077735793 -0.22976725182787452 0.4248759211003475 -1.313786605351020517 -0.41689925390636035 -0.4164479202040685 -0.21288503467999348
 -0.5137329330866826 0.19159092195059296 -0.22963682216067283 -0.8622449319290355 0.28469894378746463 -0.794039628139976 -0.6054341565231924
18 -0.17263517603339604 0.4488462663804188 -0.6987018723809587 -0.48671003110322253 -0.538129465197159 -0.0024293004816925757 -0.07831934765957994
 -0.5283235632545693 -0.2125922833833723 0.0368924921394548819 -0.7712744394714951 -0.21056564146210027 0.7312093530248881 1.1101936289521819
 -0.6219045555739601 -0.7305412128912062 -0.35795476610500904 -0.40922821871667303 -0.36387917364293215 -0.568880364064754520 -1.020803666098349
 0.5072484457636494 -0.075173961806878 -0.506059702973337 0.08276854263588576 -0.3580617155231193 0.6710023632652381 -0.5855933994909576
 -0.8720702529969594 -0.680515369650920921 -0.7235652244580877 -0.7812760053832126 0.451700958691383 -0.7111965025625051 1.1338139756585706
 -0.23480901096526205 -0.21761693146136138 -1.1686963717582437 0.4161580897574427 -0.539105203966979322 0.8125514131286279 0.319884237672534
 -0.5176042720886197 -0.7000802332676497 -0.06023009576974114 -0.8647959418463033 -0.24726911468044688 -0.03986914147940182 -0.18479150549091233
 -0.708569884556549823 0.8718598067128397 -1.0613012015864844 0.10521695923735631 -0.4185104547129885 -0.343363551810339 -0.5858991046152975
 0.049539500149245394 0.27988946866068776 -1.3646197821112747 -1.066906728442061224 -0.8449810328183089 0.09808612506733962 0.4546866893831091
 0.12487842911424385 -0.8359639895951827 0.3366127052220378 -0.7094713799897878 -0.6709821948645167 -1.0669194199790828 0.06441092060792797
25 -0.42713862250630075 -0.5707033315899805 0.03592819772595685 -0.8644341568211151 0.5647850589679922 -0.10955749289968104 -0.31602408653834296
 -0.6066275780692459 0.12242764027935137 0.340240761943167726 0.15145572390022394 -0.9333734109335396 -0.7639675164855877 0.18920368957106903
 -0.6939162196616552 0.05718150647492997 -0.27063957741779365 -0.8218960059986792 0.4114578941265089 -0.566029480964529227 -0.08492730709724132
 -0.3897990905780825 -0.6383277535604263 -1.2703603281199978 0.36006109067343245 0.7176957463324058 0.895328175450572 -0.8402221739410471
 -0.5709133775647878 -0.486037632620063628 0.3829412938282628 -1.28176926818446 -0.4303278412922567 -0.5913196444984147 -0.7671289678990127
 0.6708379250974931 0.25401251526560636 -0.8373686652618246 0.42868883035269667 -1.377200970923568929 -0.50510841760594 -0.059482226076889334
 -0.13111159393832295 0.11600278434470788 -0.19574354306347744 -0.7303228314933287 -0.8289770874711692 0.4649766007106693 0.6553943660070845
 -0.54755714195628130 0.07675259272668936 -0.35772531844814265 -0.2384597766056008 0.4725579473150789 -0.05458500151817364 -0.06610871926417625
 0.22690218568358742 0.22922260455293605 0.14709760705891153 0.2373879678532219231 0.2650248289817253 0.4214007970941048 -0.3727916885235754
 0.3230980200943576 0.23933391620139632 -0.32462196907827817 -0.24229344024114155 -0.04628231098008003 0.3232240505216066 -0.09872540390687601
32 -0.27616715654995255 -0.3259229824743355 0.13164721643134497 -0.47437064486439445 0.04931393119014893 -0.5517988326933388 -0.7598179762567888
 -0.3830536637253141 0.5166591288330256 0.1607395891353004333 -0.5324308438217846 -0.6372984463936359 0.8846350858889491 1.2868509279423825
 -1.0722825103933495 1.447828780673911 -0.5306785969541012 -0.6749847214610741 -2.1680654983508525 -1.113061034278777234 -0.1958268904048105
 0.09375086956786666 -0.23847231115693085 0.024941975818550517 -0.6004137379757393 -0.04312354979068466 0.25274446778444537 -0.16584431320693607
 -0.14376918659892773 -0.744348445656983235 0.1607636724432547 -0.4589843337932053 -1.3650019457786458 -1.3323859460608893 0.14551748376653634
 0.2750957963047482 0.16601446975234366 -1.0108135428228937 -0.21357265212479076 -0.2411201940310877336 -0.9753322749462546 0.48559804743627766
 -1.334528137170343 -0.5439413545993076 -0.6758506179677011 0.009138023449032959 -1.095083488056846 -0.14558665198525494 -0.1381438000484696
 -0.1710183279083419837 -0.13671935853842232 0.03409092177778627 -0.31612273782048594 0.25704179786114356 -0.15357639366758985 -0.6405187437255152
 -0.8448656703660102 0.11473493710440387 -0.6341717990399295 0.678913672405586438 -0.8950334088439441 0.36984250483608955 0.23279109878640183
 -1.0211941105609768 0.34302100032347077 -0.11560877185220617 -0.07713668712187222 -0.015286593250269497 -0.4987289133283711 -0.36394565519255373
39 -0.38190375310941677 0.5100908539172734 0.5197499218712653 -0.4203815028536128 0.22579774060821214 -0.2630786669776707 0.3042838784808792
 -0.31184940529614114 -0.0657894120702465 -0.448708466297701840 0.1811957490975209 0.5163486172586361 -0.8077012319368045 0.38917546166206624
 -0.43735519616218604 -0.5616448178794576 -1.3723879191520068 0.05959840997006307 -0.728730670992909 -0.02726149861035914741 -0.028200525304268153
 -0.5729416870835521 0.30770182024985615 1.4521911678520825 -0.47180429512604655 -0.9551082055683346 -0.5106655605640459 0.42483042882191807
 -1.1837614099773042 -0.941294381715760542 -0.8129012306119588 0.6419488761782275 -0.3559740763375862 -0.04512872165967599 -0.23178888252466623
 -0.02385610195489822 -0.5823911988448576 -0.21059948802409548 -1.0340736657120386 0.3282628582453086543 -0.1927615318067401 -1.4835629302376967
 -1.3896998303517458 0.31826716725662174 -1.134180811241703 0.2566188150953952 -0.982925351883648 -1.6111493123517404 1.538093806914821
 -0.728704785587484344 0.9794814855789703 -0.23137244383436747 -1.09635858055485 0.5645586343113425 -0.9987227516384757 -0.2407877842803209
 -0.775186534699232 -0.6644030239939508 -0.9106200556048474 0.0537477114789376945 -0.4500859824940847 0.10989424816939766 0.28234886166174483
 -0.343378324725375 -0.6969772816639088 -0.13205494097636977 -0.7862933767094613 -0.02481213390282736 0.01877393331603799 -0.08901033341059303
46 0.5645365025388333 -0.30078633381618786 -1.302563210888924 -0.6995273551705733 0.8300114824733663 -0.7959637867071702 -0.8842287408455882
 0.01753099746479423 -0.3851955684940715 -0.1276817396641232247 -0.17620657169549764 -0.8738348494563729 -0.341695214964729 -0.9632943874508996
 0.6196412074650529 -0.3814756709207621 0.4649025909572001 -0.640523769422266 -0.3914904440839951 -0.824599253217258648 0.34930038607086716
 -0.527696601623043 -0.3932446378906312 -0.14989595315183307 0.3027411531475316 -0.19663820813148802 -0.26234158016056025 -0.2039533047528826
